digraph Tree {
node [shape=box] ;
0 [label="X[2] <= -1.5776\ngini = 0.17\nsamples = 101245\nvalue = [91747, 9498]"] ;
1 [label="gini = 0.0\nsamples = 5091\nvalue = [0, 5091]"] ;
0 -> 1 [labeldistance=2.5, labelangle=45, headlabel="True"] ;
2 [label="X[4] <= 0.5\ngini = 0.0875\nsamples = 96154\nvalue = [91747, 4407]"] ;
0 -> 2 [labeldistance=2.5, labelangle=-45, headlabel="False"] ;
3 [label="X[15] <= 0.5\ngini = 0.084\nsamples = 76756\nvalue = [73383, 3373]"] ;
2 -> 3 ;
4 [label="X[54] <= 0.5\ngini = 0.0839\nsamples = 76693\nvalue = [73329, 3364]"] ;
3 -> 4 ;
5 [label="X[2] <= 1.2203\ngini = 0.0839\nsamples = 76691\nvalue = [73328, 3363]"] ;
4 -> 5 ;
6 [label="X[2] <= 1.1834\ngini = 0.0821\nsamples = 64699\nvalue = [61923, 2776]"] ;
5 -> 6 ;
7 [label="X[2] <= 1.1834\ngini = 0.0826\nsamples = 63875\nvalue = [61119, 2756]"] ;
6 -> 7 ;
8 [label="X[1] <= -0.5385\ngini = 0.0825\nsamples = 63874\nvalue = [61119, 2755]"] ;
7 -> 8 ;
9 [label="X[181] <= 0.5\ngini = 0.0883\nsamples = 20962\nvalue = [19992, 970]"] ;
8 -> 9 ;
10 [label="X[85] <= 0.5\ngini = 0.0878\nsamples = 20900\nvalue = [19938, 962]"] ;
9 -> 10 ;
11 [label="X[168] <= 0.5\ngini = 0.0877\nsamples = 20898\nvalue = [19937, 961]"] ;
10 -> 11 ;
12 [label="X[49] <= 0.5\ngini = 0.0876\nsamples = 20891\nvalue = [19932, 959]"] ;
11 -> 12 ;
13 [label="X[133] <= 0.5\ngini = 0.0853\nsamples = 19236\nvalue = [18377, 859]"] ;
12 -> 13 ;
14 [label="X[188] <= 0.5\ngini = 0.0849\nsamples = 19191\nvalue = [18338, 853]"] ;
13 -> 14 ;
15 [label="X[106] <= 0.5\ngini = 0.0847\nsamples = 19165\nvalue = [18316, 849]"] ;
14 -> 15 ;
16 [label="X[158] <= 0.5\ngini = 0.0846\nsamples = 19162\nvalue = [18314, 848]"] ;
15 -> 16 ;
17 [label="X[2] <= -1.5765\ngini = 0.0845\nsamples = 19159\nvalue = [18312, 847]"] ;
16 -> 17 ;
18 [label="X[12] <= 0.5\ngini = 0.4444\nsamples = 3\nvalue = [2, 1]"] ;
17 -> 18 ;
19 [label="gini = 0.0\nsamples = 2\nvalue = [2, 0]"] ;
18 -> 19 ;
20 [label="gini = 0.0\nsamples = 1\nvalue = [0, 1]"] ;
18 -> 20 ;
21 [label="X[22] <= 0.5\ngini = 0.0844\nsamples = 19156\nvalue = [18310, 846]"] ;
17 -> 21 ;
22 [label="X[176] <= 0.5\ngini = 0.0843\nsamples = 19153\nvalue = [18308, 845]"] ;
21 -> 22 ;
23 [label="X[101] <= 0.5\ngini = 0.0843\nsamples = 19150\nvalue = [18306, 844]"] ;
22 -> 23 ;
24 [label="X[152] <= 0.5\ngini = 0.0855\nsamples = 18512\nvalue = [17684, 828]"] ;
23 -> 24 ;
25 [label="X[0] <= 0.0854\ngini = 0.0848\nsamples = 18286\nvalue = [17475, 811]"] ;
24 -> 25 ;
26 [label="X[80] <= 0.5\ngini = 0.0796\nsamples = 10577\nvalue = [10138, 439]"] ;
25 -> 26 ;
27 [label="X[102] <= 0.5\ngini = 0.0791\nsamples = 10564\nvalue = [10128, 436]"] ;
26 -> 27 ;
28 [label="X[2] <= -1.53\ngini = 0.0788\nsamples = 10557\nvalue = [10123, 434]"] ;
27 -> 28 ;
29 [label="X[2] <= -1.5308\ngini = 0.1584\nsamples = 196\nvalue = [179, 17]"] ;
28 -> 29 ;
30 [label="X[28] <= 0.5\ngini = 0.1434\nsamples = 193\nvalue = [178, 15]"] ;
29 -> 30 ;
31 [label="X[7] <= 0.5\ngini = 0.1352\nsamples = 192\nvalue = [178, 14]"] ;
30 -> 31 ;
32 [label="X[87] <= 0.5\ngini = 0.0967\nsamples = 157\nvalue = [149, 8]"] ;
31 -> 32 ;
33 [label="X[0] <= -0.0238\ngini = 0.0857\nsamples = 156\nvalue = [149, 7]"] ;
32 -> 33 ;
34 [label="X[2] <= -1.5352\ngini = 0.0649\nsamples = 149\nvalue = [144, 5]"] ;
33 -> 34 ;
35 [label="X[131] <= 0.5\ngini = 0.0422\nsamples = 139\nvalue = [136, 3]"] ;
34 -> 35 ;
36 [label="X[77] <= 0.5\ngini = 0.029\nsamples = 136\nvalue = [134, 2]"] ;
35 -> 36 ;
37 [label="X[0] <= -1.279\ngini = 0.015\nsamples = 132\nvalue = [131, 1]"] ;
36 -> 37 ;
38 [label="X[0] <= -1.3336\ngini = 0.095\nsamples = 20\nvalue = [19, 1]"] ;
37 -> 38 ;
39 [label="gini = 0.0\nsamples = 15\nvalue = [15, 0]"] ;
38 -> 39 ;
40 [label="X[2] <= -1.5613\ngini = 0.32\nsamples = 5\nvalue = [4, 1]"] ;
38 -> 40 ;
41 [label="X[1] <= -1.4088\ngini = 0.5\nsamples = 2\nvalue = [1, 1]"] ;
40 -> 41 ;
42 [label="gini = 0.0\nsamples = 1\nvalue = [1, 0]"] ;
41 -> 42 ;
43 [label="gini = 0.0\nsamples = 1\nvalue = [0, 1]"] ;
41 -> 43 ;
44 [label="gini = 0.0\nsamples = 3\nvalue = [3, 0]"] ;
40 -> 44 ;
45 [label="gini = 0.0\nsamples = 112\nvalue = [112, 0]"] ;
37 -> 45 ;
46 [label="X[2] <= -1.552\ngini = 0.375\nsamples = 4\nvalue = [3, 1]"] ;
36 -> 46 ;
47 [label="gini = 0.0\nsamples = 1\nvalue = [0, 1]"] ;
46 -> 47 ;
48 [label="gini = 0.0\nsamples = 3\nvalue = [3, 0]"] ;
46 -> 48 ;
49 [label="X[2] <= -1.5637\ngini = 0.4444\nsamples = 3\nvalue = [2, 1]"] ;
35 -> 49 ;
50 [label="gini = 0.0\nsamples = 2\nvalue = [2, 0]"] ;
49 -> 50 ;
51 [label="gini = 0.0\nsamples = 1\nvalue = [0, 1]"] ;
49 -> 51 ;
52 [label="X[2] <= -1.5351\ngini = 0.32\nsamples = 10\nvalue = [8, 2]"] ;
34 -> 52 ;
53 [label="gini = 0.0\nsamples = 1\nvalue = [0, 1]"] ;
52 -> 53 ;
54 [label="X[45] <= 0.5\ngini = 0.1975\nsamples = 9\nvalue = [8, 1]"] ;
52 -> 54 ;
55 [label="gini = 0.0\nsamples = 8\nvalue = [8, 0]"] ;
54 -> 55 ;
56 [label="gini = 0.0\nsamples = 1\nvalue = [0, 1]"] ;
54 -> 56 ;
57 [label="X[11] <= 0.5\ngini = 0.4082\nsamples = 7\nvalue = [5, 2]"] ;
33 -> 57 ;
58 [label="X[2] <= -1.5682\ngini = 0.4444\nsamples = 3\nvalue = [1, 2]"] ;
57 -> 58 ;
59 [label="gini = 0.0\nsamples = 1\nvalue = [1, 0]"] ;
58 -> 59 ;
60 [label="gini = 0.0\nsamples = 2\nvalue = [0, 2]"] ;
58 -> 60 ;
61 [label="gini = 0.0\nsamples = 4\nvalue = [4, 0]"] ;
57 -> 61 ;
62 [label="gini = 0.0\nsamples = 1\nvalue = [0, 1]"] ;
32 -> 62 ;
63 [label="X[1] <= -0.6545\ngini = 0.2841\nsamples = 35\nvalue = [29, 6]"] ;
31 -> 63 ;
64 [label="X[2] <= -1.5649\ngini = 0.2378\nsamples = 29\nvalue = [25, 4]"] ;
63 -> 64 ;
65 [label="X[2] <= -1.5686\ngini = 0.42\nsamples = 10\nvalue = [7, 3]"] ;
64 -> 65 ;
66 [label="X[0] <= -0.9789\ngini = 0.2449\nsamples = 7\nvalue = [6, 1]"] ;
65 -> 66 ;
67 [label="X[3] <= 0.5\ngini = 0.5\nsamples = 2\nvalue = [1, 1]"] ;
66 -> 67 ;
68 [label="gini = 0.0\nsamples = 1\nvalue = [0, 1]"] ;
67 -> 68 ;
69 [label="gini = 0.0\nsamples = 1\nvalue = [1, 0]"] ;
67 -> 69 ;
70 [label="gini = 0.0\nsamples = 5\nvalue = [5, 0]"] ;
66 -> 70 ;
71 [label="X[131] <= 0.5\ngini = 0.4444\nsamples = 3\nvalue = [1, 2]"] ;
65 -> 71 ;
72 [label="gini = 0.0\nsamples = 2\nvalue = [0, 2]"] ;
71 -> 72 ;
73 [label="gini = 0.0\nsamples = 1\nvalue = [1, 0]"] ;
71 -> 73 ;
74 [label="X[0] <= -0.1875\ngini = 0.0997\nsamples = 19\nvalue = [18, 1]"] ;
64 -> 74 ;
75 [label="gini = 0.0\nsamples = 15\nvalue = [15, 0]"] ;
74 -> 75 ;
76 [label="X[1] <= -1.2928\ngini = 0.375\nsamples = 4\nvalue = [3, 1]"] ;
74 -> 76 ;
77 [label="gini = 0.0\nsamples = 2\nvalue = [2, 0]"] ;
76 -> 77 ;
78 [label="X[97] <= 0.5\ngini = 0.5\nsamples = 2\nvalue = [1, 1]"] ;
76 -> 78 ;
79 [label="gini = 0.0\nsamples = 1\nvalue = [0, 1]"] ;
78 -> 79 ;
80 [label="gini = 0.0\nsamples = 1\nvalue = [1, 0]"] ;
78 -> 80 ;
81 [label="X[2] <= -1.5496\ngini = 0.4444\nsamples = 6\nvalue = [4, 2]"] ;
63 -> 81 ;
82 [label="gini = 0.0\nsamples = 3\nvalue = [3, 0]"] ;
81 -> 82 ;
83 [label="X[0] <= -1.4701\ngini = 0.4444\nsamples = 3\nvalue = [1, 2]"] ;
81 -> 83 ;
84 [label="gini = 0.0\nsamples = 1\nvalue = [1, 0]"] ;
83 -> 84 ;
85 [label="gini = 0.0\nsamples = 2\nvalue = [0, 2]"] ;
83 -> 85 ;
86 [label="gini = 0.0\nsamples = 1\nvalue = [0, 1]"] ;
30 -> 86 ;
87 [label="X[73] <= 0.5\ngini = 0.4444\nsamples = 3\nvalue = [1, 2]"] ;
29 -> 87 ;
88 [label="gini = 0.0\nsamples = 2\nvalue = [0, 2]"] ;
87 -> 88 ;
89 [label="gini = 0.0\nsamples = 1\nvalue = [1, 0]"] ;
87 -> 89 ;
90 [label="X[108] <= 0.5\ngini = 0.0773\nsamples = 10361\nvalue = [9944, 417]"] ;
28 -> 90 ;
91 [label="X[0] <= -1.1153\ngini = 0.0771\nsamples = 10358\nvalue = [9942, 416]"] ;
90 -> 91 ;
92 [label="X[28] <= 0.5\ngini = 0.0922\nsamples = 2373\nvalue = [2258, 115]"] ;
91 -> 92 ;
93 [label="X[185] <= 0.5\ngini = 0.091\nsamples = 2366\nvalue = [2253, 113]"] ;
92 -> 93 ;
94 [label="X[72] <= 0.5\ngini = 0.0903\nsamples = 2363\nvalue = [2251, 112]"] ;
93 -> 94 ;
95 [label="X[20] <= 0.5\ngini = 0.0891\nsamples = 2353\nvalue = [2243, 110]"] ;
94 -> 95 ;
96 [label="X[175] <= 0.5\ngini = 0.0871\nsamples = 2322\nvalue = [2216, 106]"] ;
95 -> 96 ;
97 [label="X[97] <= 0.5\ngini = 0.0865\nsamples = 2318\nvalue = [2213, 105]"] ;
96 -> 97 ;
98 [label="X[1] <= -0.6545\ngini = 0.083\nsamples = 2190\nvalue = [2095, 95]"] ;
97 -> 98 ;
99 [label="X[7] <= 0.5\ngini = 0.0775\nsamples = 1907\nvalue = [1830, 77]"] ;
98 -> 99 ;
100 [label="X[60] <= 0.5\ngini = 0.0715\nsamples = 1617\nvalue = [1557, 60]"] ;
99 -> 100 ;
101 [label="X[145] <= 0.5\ngini = 0.0706\nsamples = 1611\nvalue = [1552, 59]"] ;
100 -> 101 ;
102 [label="X[146] <= 0.5\ngini = 0.0697\nsamples = 1605\nvalue = [1547, 58]"] ;
101 -> 102 ;
103 [label="X[184] <= 0.5\ngini = 0.0688\nsamples = 1598\nvalue = [1541, 57]"] ;
102 -> 103 ;
104 [label="X[2] <= 0.5735\ngini = 0.0569\nsamples = 853\nvalue = [828, 25]"] ;
103 -> 104 ;
105 [label="X[2] <= 0.5519\ngini = 0.0681\nsamples = 652\nvalue = [629, 23]"] ;
104 -> 105 ;
106 [label="X[45] <= 0.5\ngini = 0.06\nsamples = 646\nvalue = [626, 20]"] ;
105 -> 106 ;
107 [label="X[2] <= -0.9502\ngini = 0.0544\nsamples = 607\nvalue = [590, 17]"] ;
106 -> 107 ;
108 [label="X[2] <= -0.951\ngini = 0.0847\nsamples = 158\nvalue = [151, 7]"] ;
107 -> 108 ;
109 [label="X[169] <= 0.5\ngini = 0.0735\nsamples = 157\nvalue = [151, 6]"] ;
108 -> 109 ;
110 [label="X[73] <= 0.5\ngini = 0.0636\nsamples = 152\nvalue = [147, 5]"] ;
109 -> 110 ;
111 [label="X[2] <= -1.2151\ngini = 0.0533\nsamples = 146\nvalue = [142, 4]"] ;
110 -> 111 ;
112 [label="gini = 0.0\nsamples = 77\nvalue = [77, 0]"] ;
111 -> 112 ;
113 [label="X[2] <= -1.2122\ngini = 0.1092\nsamples = 69\nvalue = [65, 4]"] ;
111 -> 113 ;
114 [label="gini = 0.0\nsamples = 1\nvalue = [0, 1]"] ;
113 -> 114 ;
115 [label="X[77] <= 0.5\ngini = 0.0843\nsamples = 68\nvalue = [65, 3]"] ;
113 -> 115 ;
116 [label="X[2] <= -1.1967\ngini = 0.0596\nsamples = 65\nvalue = [63, 2]"] ;
115 -> 116 ;
117 [label="X[8] <= 0.5\ngini = 0.375\nsamples = 4\nvalue = [3, 1]"] ;
116 -> 117 ;
118 [label="gini = 0.0\nsamples = 3\nvalue = [3, 0]"] ;
117 -> 118 ;
119 [label="gini = 0.0\nsamples = 1\nvalue = [0, 1]"] ;
117 -> 119 ;
120 [label="X[95] <= 0.5\ngini = 0.0322\nsamples = 61\nvalue = [60, 1]"] ;
116 -> 120 ;
121 [label="gini = 0.0\nsamples = 56\nvalue = [56, 0]"] ;
120 -> 121 ;
122 [label="X[5] <= 0.5\ngini = 0.32\nsamples = 5\nvalue = [4, 1]"] ;
120 -> 122 ;
123 [label="X[0] <= -1.1699\ngini = 0.5\nsamples = 2\nvalue = [1, 1]"] ;
122 -> 123 ;
124 [label="gini = 0.0\nsamples = 1\nvalue = [0, 1]"] ;
123 -> 124 ;
125 [label="gini = 0.0\nsamples = 1\nvalue = [1, 0]"] ;
123 -> 125 ;
126 [label="gini = 0.0\nsamples = 3\nvalue = [3, 0]"] ;
122 -> 126 ;
127 [label="X[0] <= -1.3609\ngini = 0.4444\nsamples = 3\nvalue = [2, 1]"] ;
115 -> 127 ;
128 [label="gini = 0.0\nsamples = 1\nvalue = [0, 1]"] ;
127 -> 128 ;
129 [label="gini = 0.0\nsamples = 2\nvalue = [2, 0]"] ;
127 -> 129 ;
130 [label="X[0] <= -1.3063\ngini = 0.2778\nsamples = 6\nvalue = [5, 1]"] ;
110 -> 130 ;
131 [label="gini = 0.0\nsamples = 4\nvalue = [4, 0]"] ;
130 -> 131 ;
132 [label="X[8] <= 0.5\ngini = 0.5\nsamples = 2\nvalue = [1, 1]"] ;
130 -> 132 ;
133 [label="gini = 0.0\nsamples = 1\nvalue = [1, 0]"] ;
132 -> 133 ;
134 [label="gini = 0.0\nsamples = 1\nvalue = [0, 1]"] ;
132 -> 134 ;
135 [label="X[1] <= -1.4668\ngini = 0.32\nsamples = 5\nvalue = [4, 1]"] ;
109 -> 135 ;
136 [label="gini = 0.0\nsamples = 1\nvalue = [0, 1]"] ;
135 -> 136 ;
137 [label="gini = 0.0\nsamples = 4\nvalue = [4, 0]"] ;
135 -> 137 ;
138 [label="gini = 0.0\nsamples = 1\nvalue = [0, 1]"] ;
108 -> 138 ;
139 [label="X[2] <= -0.4075\ngini = 0.0436\nsamples = 449\nvalue = [439, 10]"] ;
107 -> 139 ;
140 [label="X[172] <= 0.5\ngini = 0.0117\nsamples = 170\nvalue = [169, 1]"] ;
139 -> 140 ;
141 [label="gini = 0.0\nsamples = 164\nvalue = [164, 0]"] ;
140 -> 141 ;
142 [label="X[12] <= 0.5\ngini = 0.2778\nsamples = 6\nvalue = [5, 1]"] ;
140 -> 142 ;
143 [label="gini = 0.0\nsamples = 1\nvalue = [0, 1]"] ;
142 -> 143 ;
144 [label="gini = 0.0\nsamples = 5\nvalue = [5, 0]"] ;
142 -> 144 ;
145 [label="X[2] <= -0.4054\ngini = 0.0624\nsamples = 279\nvalue = [270, 9]"] ;
139 -> 145 ;
146 [label="gini = 0.0\nsamples = 1\nvalue = [0, 1]"] ;
145 -> 146 ;
147 [label="X[164] <= 0.5\ngini = 0.0559\nsamples = 278\nvalue = [270, 8]"] ;
145 -> 147 ;
148 [label="X[131] <= 0.5\ngini = 0.0503\nsamples = 271\nvalue = [264, 7]"] ;
147 -> 148 ;
149 [label="X[0] <= -1.3882\ngini = 0.0446\nsamples = 263\nvalue = [257, 6]"] ;
148 -> 149 ;
150 [label="gini = 0.0\nsamples = 78\nvalue = [78, 0]"] ;
149 -> 150 ;
151 [label="X[2] <= -0.0315\ngini = 0.0628\nsamples = 185\nvalue = [179, 6]"] ;
149 -> 151 ;
152 [label="X[2] <= -0.0374\ngini = 0.1123\nsamples = 67\nvalue = [63, 4]"] ;
151 -> 152 ;
153 [label="X[183] <= 0.5\ngini = 0.0868\nsamples = 66\nvalue = [63, 3]"] ;
152 -> 153 ;
154 [label="X[73] <= 0.5\ngini = 0.0624\nsamples = 62\nvalue = [60, 2]"] ;
153 -> 154 ;
155 [label="X[0] <= -1.1699\ngini = 0.0345\nsamples = 57\nvalue = [56, 1]"] ;
154 -> 155 ;
156 [label="gini = 0.0\nsamples = 50\nvalue = [50, 0]"] ;
155 -> 156 ;
157 [label="X[1] <= -1.0027\ngini = 0.2449\nsamples = 7\nvalue = [6, 1]"] ;
155 -> 157 ;
158 [label="gini = 0.0\nsamples = 1\nvalue = [0, 1]"] ;
157 -> 158 ;
159 [label="gini = 0.0\nsamples = 6\nvalue = [6, 0]"] ;
157 -> 159 ;
160 [label="X[1] <= -0.9446\ngini = 0.32\nsamples = 5\nvalue = [4, 1]"] ;
154 -> 160 ;
161 [label="X[8] <= 0.5\ngini = 0.5\nsamples = 2\nvalue = [1, 1]"] ;
160 -> 161 ;
162 [label="gini = 0.0\nsamples = 1\nvalue = [0, 1]"] ;
161 -> 162 ;
163 [label="gini = 0.0\nsamples = 1\nvalue = [1, 0]"] ;
161 -> 163 ;
164 [label="gini = 0.0\nsamples = 3\nvalue = [3, 0]"] ;
160 -> 164 ;
165 [label="X[0] <= -1.279\ngini = 0.375\nsamples = 4\nvalue = [3, 1]"] ;
153 -> 165 ;
166 [label="gini = 0.0\nsamples = 1\nvalue = [0, 1]"] ;
165 -> 166 ;
167 [label="gini = 0.0\nsamples = 3\nvalue = [3, 0]"] ;
165 -> 167 ;
168 [label="gini = 0.0\nsamples = 1\nvalue = [0, 1]"] ;
152 -> 168 ;
169 [label="X[1] <= -1.2347\ngini = 0.0333\nsamples = 118\nvalue = [116, 2]"] ;
151 -> 169 ;
170 [label="X[10] <= 0.5\ngini = 0.0907\nsamples = 42\nvalue = [40, 2]"] ;
169 -> 170 ;
171 [label="X[2] <= 0.4326\ngini = 0.0555\nsamples = 35\nvalue = [34, 1]"] ;
170 -> 171 ;
172 [label="gini = 0.0\nsamples = 26\nvalue = [26, 0]"] ;
171 -> 172 ;
173 [label="X[2] <= 0.448\ngini = 0.1975\nsamples = 9\nvalue = [8, 1]"] ;
171 -> 173 ;
174 [label="gini = 0.0\nsamples = 1\nvalue = [0, 1]"] ;
173 -> 174 ;
175 [label="gini = 0.0\nsamples = 8\nvalue = [8, 0]"] ;
173 -> 175 ;
176 [label="X[1] <= -1.3508\ngini = 0.2449\nsamples = 7\nvalue = [6, 1]"] ;
170 -> 176 ;
177 [label="gini = 0.0\nsamples = 4\nvalue = [4, 0]"] ;
176 -> 177 ;
178 [label="X[0] <= -1.279\ngini = 0.4444\nsamples = 3\nvalue = [2, 1]"] ;
176 -> 178 ;
179 [label="gini = 0.0\nsamples = 1\nvalue = [0, 1]"] ;
178 -> 179 ;
180 [label="gini = 0.0\nsamples = 2\nvalue = [2, 0]"] ;
178 -> 180 ;
181 [label="gini = 0.0\nsamples = 76\nvalue = [76, 0]"] ;
169 -> 181 ;
182 [label="X[9] <= 0.5\ngini = 0.2188\nsamples = 8\nvalue = [7, 1]"] ;
148 -> 182 ;
183 [label="gini = 0.0\nsamples = 7\nvalue = [7, 0]"] ;
182 -> 183 ;
184 [label="gini = 0.0\nsamples = 1\nvalue = [0, 1]"] ;
182 -> 184 ;
185 [label="X[0] <= -1.4428\ngini = 0.2449\nsamples = 7\nvalue = [6, 1]"] ;
147 -> 185 ;
186 [label="gini = 0.0\nsamples = 1\nvalue = [0, 1]"] ;
185 -> 186 ;
187 [label="gini = 0.0\nsamples = 6\nvalue = [6, 0]"] ;
185 -> 187 ;
188 [label="X[2] <= -1.4291\ngini = 0.142\nsamples = 39\nvalue = [36, 3]"] ;
106 -> 188 ;
189 [label="gini = 0.0\nsamples = 1\nvalue = [0, 1]"] ;
188 -> 189 ;
190 [label="X[0] <= -1.2245\ngini = 0.0997\nsamples = 38\nvalue = [36, 2]"] ;
188 -> 190 ;
191 [label="gini = 0.0\nsamples = 28\nvalue = [28, 0]"] ;
190 -> 191 ;
192 [label="X[11] <= 0.5\ngini = 0.32\nsamples = 10\nvalue = [8, 2]"] ;
190 -> 192 ;
193 [label="gini = 0.0\nsamples = 7\nvalue = [7, 0]"] ;
192 -> 193 ;
194 [label="X[5] <= 0.5\ngini = 0.4444\nsamples = 3\nvalue = [1, 2]"] ;
192 -> 194 ;
195 [label="gini = 0.0\nsamples = 1\nvalue = [1, 0]"] ;
194 -> 195 ;
196 [label="gini = 0.0\nsamples = 2\nvalue = [0, 2]"] ;
194 -> 196 ;
197 [label="X[12] <= 0.5\ngini = 0.5\nsamples = 6\nvalue = [3, 3]"] ;
105 -> 197 ;
198 [label="X[95] <= 0.5\ngini = 0.375\nsamples = 4\nvalue = [3, 1]"] ;
197 -> 198 ;
199 [label="gini = 0.0\nsamples = 3\nvalue = [3, 0]"] ;
198 -> 199 ;
200 [label="gini = 0.0\nsamples = 1\nvalue = [0, 1]"] ;
198 -> 200 ;
201 [label="gini = 0.0\nsamples = 2\nvalue = [0, 2]"] ;
197 -> 201 ;
202 [label="X[2] <= 1.1053\ngini = 0.0197\nsamples = 201\nvalue = [199, 2]"] ;
104 -> 202 ;
203 [label="X[0] <= -1.4973\ngini = 0.0109\nsamples = 182\nvalue = [181, 1]"] ;
202 -> 203 ;
204 [label="X[1] <= -1.5829\ngini = 0.0997\nsamples = 19\nvalue = [18, 1]"] ;
203 -> 204 ;
205 [label="X[3] <= 0.5\ngini = 0.4444\nsamples = 3\nvalue = [2, 1]"] ;
204 -> 205 ;
206 [label="gini = 0.0\nsamples = 1\nvalue = [0, 1]"] ;
205 -> 206 ;
207 [label="gini = 0.0\nsamples = 2\nvalue = [2, 0]"] ;
205 -> 207 ;
208 [label="gini = 0.0\nsamples = 16\nvalue = [16, 0]"] ;
204 -> 208 ;
209 [label="gini = 0.0\nsamples = 163\nvalue = [163, 0]"] ;
203 -> 209 ;
210 [label="X[2] <= 1.1089\ngini = 0.0997\nsamples = 19\nvalue = [18, 1]"] ;
202 -> 210 ;
211 [label="gini = 0.0\nsamples = 1\nvalue = [0, 1]"] ;
210 -> 211 ;
212 [label="gini = 0.0\nsamples = 18\nvalue = [18, 0]"] ;
210 -> 212 ;
213 [label="X[2] <= -0.6122\ngini = 0.0822\nsamples = 745\nvalue = [713, 32]"] ;
103 -> 213 ;
214 [label="X[1] <= -1.0027\ngini = 0.0444\nsamples = 264\nvalue = [258, 6]"] ;
213 -> 214 ;
215 [label="X[2] <= -1.1685\ngini = 0.0731\nsamples = 158\nvalue = [152, 6]"] ;
214 -> 215 ;
216 [label="X[0] <= -1.1699\ngini = 0.029\nsamples = 68\nvalue = [67, 1]"] ;
215 -> 216 ;
217 [label="gini = 0.0\nsamples = 58\nvalue = [58, 0]"] ;
216 -> 217 ;
218 [label="X[2] <= -1.487\ngini = 0.18\nsamples = 10\nvalue = [9, 1]"] ;
216 -> 218 ;
219 [label="X[2] <= -1.4991\ngini = 0.5\nsamples = 2\nvalue = [1, 1]"] ;
218 -> 219 ;
220 [label="gini = 0.0\nsamples = 1\nvalue = [1, 0]"] ;
219 -> 220 ;
221 [label="gini = 0.0\nsamples = 1\nvalue = [0, 1]"] ;
219 -> 221 ;
222 [label="gini = 0.0\nsamples = 8\nvalue = [8, 0]"] ;
218 -> 222 ;
223 [label="X[2] <= -1.1646\ngini = 0.1049\nsamples = 90\nvalue = [85, 5]"] ;
215 -> 223 ;
224 [label="gini = 0.0\nsamples = 1\nvalue = [0, 1]"] ;
223 -> 224 ;
225 [label="X[12] <= 0.5\ngini = 0.0858\nsamples = 89\nvalue = [85, 4]"] ;
223 -> 225 ;
226 [label="gini = 0.0\nsamples = 37\nvalue = [37, 0]"] ;
225 -> 226 ;
227 [label="X[1] <= -1.2347\ngini = 0.142\nsamples = 52\nvalue = [48, 4]"] ;
225 -> 227 ;
228 [label="X[0] <= -1.3882\ngini = 0.2076\nsamples = 34\nvalue = [30, 4]"] ;
227 -> 228 ;
229 [label="X[2] <= -0.6917\ngini = 0.3367\nsamples = 14\nvalue = [11, 3]"] ;
228 -> 229 ;
230 [label="X[6] <= 0.5\ngini = 0.2604\nsamples = 13\nvalue = [11, 2]"] ;
229 -> 230 ;
231 [label="gini = 0.0\nsamples = 6\nvalue = [6, 0]"] ;
230 -> 231 ;
232 [label="X[2] <= -0.8868\ngini = 0.4082\nsamples = 7\nvalue = [5, 2]"] ;
230 -> 232 ;
233 [label="X[2] <= -1.0691\ngini = 0.5\nsamples = 4\nvalue = [2, 2]"] ;
232 -> 233 ;
234 [label="gini = 0.0\nsamples = 1\nvalue = [1, 0]"] ;
233 -> 234 ;
235 [label="X[1] <= -1.5829\ngini = 0.4444\nsamples = 3\nvalue = [1, 2]"] ;
233 -> 235 ;
236 [label="X[2] <= -0.915\ngini = 0.5\nsamples = 2\nvalue = [1, 1]"] ;
235 -> 236 ;
237 [label="gini = 0.0\nsamples = 1\nvalue = [1, 0]"] ;
236 -> 237 ;
238 [label="gini = 0.0\nsamples = 1\nvalue = [0, 1]"] ;
236 -> 238 ;
239 [label="gini = 0.0\nsamples = 1\nvalue = [0, 1]"] ;
235 -> 239 ;
240 [label="gini = 0.0\nsamples = 3\nvalue = [3, 0]"] ;
232 -> 240 ;
241 [label="gini = 0.0\nsamples = 1\nvalue = [0, 1]"] ;
229 -> 241 ;
242 [label="X[2] <= -1.0987\ngini = 0.095\nsamples = 20\nvalue = [19, 1]"] ;
228 -> 242 ;
243 [label="X[2] <= -1.1149\ngini = 0.4444\nsamples = 3\nvalue = [2, 1]"] ;
242 -> 243 ;
244 [label="gini = 0.0\nsamples = 2\nvalue = [2, 0]"] ;
243 -> 244 ;
245 [label="gini = 0.0\nsamples = 1\nvalue = [0, 1]"] ;
243 -> 245 ;
246 [label="gini = 0.0\nsamples = 17\nvalue = [17, 0]"] ;
242 -> 246 ;
247 [label="gini = 0.0\nsamples = 18\nvalue = [18, 0]"] ;
227 -> 247 ;
248 [label="gini = 0.0\nsamples = 106\nvalue = [106, 0]"] ;
214 -> 248 ;
249 [label="X[2] <= -0.6119\ngini = 0.1023\nsamples = 481\nvalue = [455, 26]"] ;
213 -> 249 ;
250 [label="gini = 0.0\nsamples = 1\nvalue = [0, 1]"] ;
249 -> 250 ;
251 [label="X[8] <= 0.5\ngini = 0.0987\nsamples = 480\nvalue = [455, 25]"] ;
249 -> 251 ;
252 [label="X[2] <= 1.1194\ngini = 0.1181\nsamples = 349\nvalue = [327, 22]"] ;
251 -> 252 ;
253 [label="X[2] <= 0.979\ngini = 0.1117\nsamples = 337\nvalue = [317, 20]"] ;
252 -> 253 ;
254 [label="X[2] <= 0.9758\ngini = 0.1189\nsamples = 315\nvalue = [295, 20]"] ;
253 -> 254 ;
255 [label="X[1] <= -1.3508\ngini = 0.1137\nsamples = 314\nvalue = [295, 19]"] ;
254 -> 255 ;
256 [label="X[10] <= 0.5\ngini = 0.0651\nsamples = 89\nvalue = [86, 3]"] ;
255 -> 256 ;
257 [label="X[0] <= -1.4973\ngini = 0.0282\nsamples = 70\nvalue = [69, 1]"] ;
256 -> 257 ;
258 [label="X[2] <= -0.1725\ngini = 0.18\nsamples = 10\nvalue = [9, 1]"] ;
257 -> 258 ;
259 [label="X[12] <= 0.5\ngini = 0.5\nsamples = 2\nvalue = [1, 1]"] ;
258 -> 259 ;
260 [label="gini = 0.0\nsamples = 1\nvalue = [1, 0]"] ;
259 -> 260 ;
261 [label="gini = 0.0\nsamples = 1\nvalue = [0, 1]"] ;
259 -> 261 ;
262 [label="gini = 0.0\nsamples = 8\nvalue = [8, 0]"] ;
258 -> 262 ;
263 [label="gini = 0.0\nsamples = 60\nvalue = [60, 0]"] ;
257 -> 263 ;
264 [label="X[2] <= 0.2871\ngini = 0.1884\nsamples = 19\nvalue = [17, 2]"] ;
256 -> 264 ;
265 [label="gini = 0.0\nsamples = 10\nvalue = [10, 0]"] ;
264 -> 265 ;
266 [label="X[2] <= 0.3364\ngini = 0.3457\nsamples = 9\nvalue = [7, 2]"] ;
264 -> 266 ;
267 [label="gini = 0.0\nsamples = 1\nvalue = [0, 1]"] ;
266 -> 267 ;
268 [label="X[1] <= -1.6989\ngini = 0.2188\nsamples = 8\nvalue = [7, 1]"] ;
266 -> 268 ;
269 [label="X[2] <= 0.5486\ngini = 0.5\nsamples = 2\nvalue = [1, 1]"] ;
268 -> 269 ;
270 [label="gini = 0.0\nsamples = 1\nvalue = [1, 0]"] ;
269 -> 270 ;
271 [label="gini = 0.0\nsamples = 1\nvalue = [0, 1]"] ;
269 -> 271 ;
272 [label="gini = 0.0\nsamples = 6\nvalue = [6, 0]"] ;
268 -> 272 ;
273 [label="X[2] <= 0.7116\ngini = 0.1321\nsamples = 225\nvalue = [209, 16]"] ;
255 -> 273 ;
274 [label="X[2] <= -0.0489\ngini = 0.1091\nsamples = 190\nvalue = [179, 11]"] ;
273 -> 274 ;
275 [label="X[2] <= -0.0942\ngini = 0.162\nsamples = 90\nvalue = [82, 8]"] ;
274 -> 275 ;
276 [label="X[1] <= -1.1187\ngini = 0.0939\nsamples = 81\nvalue = [77, 4]"] ;
275 -> 276 ;
277 [label="X[2] <= -0.5593\ngini = 0.2268\nsamples = 23\nvalue = [20, 3]"] ;
276 -> 277 ;
278 [label="gini = 0.0\nsamples = 1\nvalue = [0, 1]"] ;
277 -> 278 ;
279 [label="X[0] <= -1.279\ngini = 0.1653\nsamples = 22\nvalue = [20, 2]"] ;
277 -> 279 ;
280 [label="X[0] <= -1.4428\ngini = 0.32\nsamples = 10\nvalue = [8, 2]"] ;
279 -> 280 ;
281 [label="gini = 0.0\nsamples = 7\nvalue = [7, 0]"] ;
280 -> 281 ;
282 [label="X[3] <= 0.5\ngini = 0.4444\nsamples = 3\nvalue = [1, 2]"] ;
280 -> 282 ;
283 [label="gini = 0.0\nsamples = 2\nvalue = [0, 2]"] ;
282 -> 283 ;
284 [label="gini = 0.0\nsamples = 1\nvalue = [1, 0]"] ;
282 -> 284 ;
285 [label="gini = 0.0\nsamples = 12\nvalue = [12, 0]"] ;
279 -> 285 ;
286 [label="X[0] <= -1.2245\ngini = 0.0339\nsamples = 58\nvalue = [57, 1]"] ;
276 -> 286 ;
287 [label="gini = 0.0\nsamples = 44\nvalue = [44, 0]"] ;
286 -> 287 ;
288 [label="X[11] <= 0.5\ngini = 0.1327\nsamples = 14\nvalue = [13, 1]"] ;
286 -> 288 ;
289 [label="gini = 0.0\nsamples = 10\nvalue = [10, 0]"] ;
288 -> 289 ;
290 [label="X[3] <= 0.5\ngini = 0.375\nsamples = 4\nvalue = [3, 1]"] ;
288 -> 290 ;
291 [label="gini = 0.0\nsamples = 2\nvalue = [2, 0]"] ;
290 -> 291 ;
292 [label="X[2] <= -0.4006\ngini = 0.5\nsamples = 2\nvalue = [1, 1]"] ;
290 -> 292 ;
293 [label="gini = 0.0\nsamples = 1\nvalue = [1, 0]"] ;
292 -> 293 ;
294 [label="gini = 0.0\nsamples = 1\nvalue = [0, 1]"] ;
292 -> 294 ;
295 [label="X[1] <= -0.8286\ngini = 0.4938\nsamples = 9\nvalue = [5, 4]"] ;
275 -> 295 ;
296 [label="X[2] <= -0.0914\ngini = 0.4082\nsamples = 7\nvalue = [5, 2]"] ;
295 -> 296 ;
297 [label="gini = 0.0\nsamples = 1\nvalue = [0, 1]"] ;
296 -> 297 ;
298 [label="X[1] <= -1.0607\ngini = 0.2778\nsamples = 6\nvalue = [5, 1]"] ;
296 -> 298 ;
299 [label="X[2] <= -0.0817\ngini = 0.4444\nsamples = 3\nvalue = [2, 1]"] ;
298 -> 299 ;
300 [label="gini = 0.0\nsamples = 2\nvalue = [2, 0]"] ;
299 -> 300 ;
301 [label="gini = 0.0\nsamples = 1\nvalue = [0, 1]"] ;
299 -> 301 ;
302 [label="gini = 0.0\nsamples = 3\nvalue = [3, 0]"] ;
298 -> 302 ;
303 [label="gini = 0.0\nsamples = 2\nvalue = [0, 2]"] ;
295 -> 303 ;
304 [label="X[1] <= -1.0027\ngini = 0.0582\nsamples = 100\nvalue = [97, 3]"] ;
274 -> 304 ;
305 [label="gini = 0.0\nsamples = 45\nvalue = [45, 0]"] ;
304 -> 305 ;
306 [label="X[12] <= 0.5\ngini = 0.1031\nsamples = 55\nvalue = [52, 3]"] ;
304 -> 306 ;
307 [label="X[2] <= 0.3586\ngini = 0.2076\nsamples = 17\nvalue = [15, 2]"] ;
306 -> 307 ;
308 [label="gini = 0.0\nsamples = 11\nvalue = [11, 0]"] ;
307 -> 308 ;
309 [label="X[2] <= 0.523\ngini = 0.4444\nsamples = 6\nvalue = [4, 2]"] ;
307 -> 309 ;
310 [label="X[1] <= -0.7706\ngini = 0.4444\nsamples = 3\nvalue = [1, 2]"] ;
309 -> 310 ;
311 [label="gini = 0.0\nsamples = 2\nvalue = [0, 2]"] ;
310 -> 311 ;
312 [label="gini = 0.0\nsamples = 1\nvalue = [1, 0]"] ;
310 -> 312 ;
313 [label="gini = 0.0\nsamples = 3\nvalue = [3, 0]"] ;
309 -> 313 ;
314 [label="X[2] <= 0.1009\ngini = 0.0512\nsamples = 38\nvalue = [37, 1]"] ;
306 -> 314 ;
315 [label="X[0] <= -1.1699\ngini = 0.2778\nsamples = 6\nvalue = [5, 1]"] ;
314 -> 315 ;
316 [label="gini = 0.0\nsamples = 5\nvalue = [5, 0]"] ;
315 -> 316 ;
317 [label="gini = 0.0\nsamples = 1\nvalue = [0, 1]"] ;
315 -> 317 ;
318 [label="gini = 0.0\nsamples = 32\nvalue = [32, 0]"] ;
314 -> 318 ;
319 [label="X[2] <= 0.7413\ngini = 0.2449\nsamples = 35\nvalue = [30, 5]"] ;
273 -> 319 ;
320 [label="gini = 0.0\nsamples = 2\nvalue = [0, 2]"] ;
319 -> 320 ;
321 [label="X[0] <= -1.3882\ngini = 0.1653\nsamples = 33\nvalue = [30, 3]"] ;
319 -> 321 ;
322 [label="X[5] <= 0.5\ngini = 0.4082\nsamples = 7\nvalue = [5, 2]"] ;
321 -> 322 ;
323 [label="gini = 0.0\nsamples = 2\nvalue = [0, 2]"] ;
322 -> 323 ;
324 [label="gini = 0.0\nsamples = 5\nvalue = [5, 0]"] ;
322 -> 324 ;
325 [label="X[1] <= -1.2347\ngini = 0.074\nsamples = 26\nvalue = [25, 1]"] ;
321 -> 325 ;
326 [label="X[2] <= 0.7859\ngini = 0.32\nsamples = 5\nvalue = [4, 1]"] ;
325 -> 326 ;
327 [label="gini = 0.0\nsamples = 1\nvalue = [0, 1]"] ;
326 -> 327 ;
328 [label="gini = 0.0\nsamples = 4\nvalue = [4, 0]"] ;
326 -> 328 ;
329 [label="gini = 0.0\nsamples = 21\nvalue = [21, 0]"] ;
325 -> 329 ;
330 [label="gini = 0.0\nsamples = 1\nvalue = [0, 1]"] ;
254 -> 330 ;
331 [label="gini = 0.0\nsamples = 22\nvalue = [22, 0]"] ;
253 -> 331 ;
332 [label="X[2] <= 1.1263\ngini = 0.2778\nsamples = 12\nvalue = [10, 2]"] ;
252 -> 332 ;
333 [label="gini = 0.0\nsamples = 1\nvalue = [0, 1]"] ;
332 -> 333 ;
334 [label="X[10] <= 0.5\ngini = 0.1653\nsamples = 11\nvalue = [10, 1]"] ;
332 -> 334 ;
335 [label="gini = 0.0\nsamples = 9\nvalue = [9, 0]"] ;
334 -> 335 ;
336 [label="X[5] <= 0.5\ngini = 0.5\nsamples = 2\nvalue = [1, 1]"] ;
334 -> 336 ;
337 [label="gini = 0.0\nsamples = 1\nvalue = [0, 1]"] ;
336 -> 337 ;
338 [label="gini = 0.0\nsamples = 1\nvalue = [1, 0]"] ;
336 -> 338 ;
339 [label="X[2] <= -0.5938\ngini = 0.0448\nsamples = 131\nvalue = [128, 3]"] ;
251 -> 339 ;
340 [label="X[11] <= 0.5\ngini = 0.5\nsamples = 2\nvalue = [1, 1]"] ;
339 -> 340 ;
341 [label="gini = 0.0\nsamples = 1\nvalue = [0, 1]"] ;
340 -> 341 ;
342 [label="gini = 0.0\nsamples = 1\nvalue = [1, 0]"] ;
340 -> 342 ;
343 [label="X[2] <= 0.3223\ngini = 0.0305\nsamples = 129\nvalue = [127, 2]"] ;
339 -> 343 ;
344 [label="gini = 0.0\nsamples = 73\nvalue = [73, 0]"] ;
343 -> 344 ;
345 [label="X[2] <= 0.3339\ngini = 0.0689\nsamples = 56\nvalue = [54, 2]"] ;
343 -> 345 ;
346 [label="gini = 0.0\nsamples = 1\nvalue = [0, 1]"] ;
345 -> 346 ;
347 [label="X[2] <= 0.6365\ngini = 0.0357\nsamples = 55\nvalue = [54, 1]"] ;
345 -> 347 ;
348 [label="X[2] <= 0.6206\ngini = 0.0907\nsamples = 21\nvalue = [20, 1]"] ;
347 -> 348 ;
349 [label="gini = 0.0\nsamples = 20\nvalue = [20, 0]"] ;
348 -> 349 ;
350 [label="gini = 0.0\nsamples = 1\nvalue = [0, 1]"] ;
348 -> 350 ;
351 [label="gini = 0.0\nsamples = 34\nvalue = [34, 0]"] ;
347 -> 351 ;
352 [label="X[2] <= 0.0517\ngini = 0.2449\nsamples = 7\nvalue = [6, 1]"] ;
102 -> 352 ;
353 [label="gini = 0.0\nsamples = 5\nvalue = [5, 0]"] ;
352 -> 353 ;
354 [label="X[0] <= -1.3609\ngini = 0.5\nsamples = 2\nvalue = [1, 1]"] ;
352 -> 354 ;
355 [label="gini = 0.0\nsamples = 1\nvalue = [1, 0]"] ;
354 -> 355 ;
356 [label="gini = 0.0\nsamples = 1\nvalue = [0, 1]"] ;
354 -> 356 ;
357 [label="X[2] <= 1.028\ngini = 0.2778\nsamples = 6\nvalue = [5, 1]"] ;
101 -> 357 ;
358 [label="gini = 0.0\nsamples = 5\nvalue = [5, 0]"] ;
357 -> 358 ;
359 [label="gini = 0.0\nsamples = 1\nvalue = [0, 1]"] ;
357 -> 359 ;
360 [label="X[1] <= -0.8286\ngini = 0.2778\nsamples = 6\nvalue = [5, 1]"] ;
100 -> 360 ;
361 [label="gini = 0.0\nsamples = 5\nvalue = [5, 0]"] ;
360 -> 361 ;
362 [label="gini = 0.0\nsamples = 1\nvalue = [0, 1]"] ;
360 -> 362 ;
363 [label="X[151] <= 0.5\ngini = 0.1104\nsamples = 290\nvalue = [273, 17]"] ;
99 -> 363 ;
364 [label="X[1] <= -1.1187\ngini = 0.1049\nsamples = 288\nvalue = [272, 16]"] ;
363 -> 364 ;
365 [label="X[0] <= -1.279\ngini = 0.1481\nsamples = 149\nvalue = [137, 12]"] ;
364 -> 365 ;
366 [label="X[3] <= 0.5\ngini = 0.1954\nsamples = 82\nvalue = [73, 9]"] ;
365 -> 366 ;
367 [label="X[2] <= -1.2957\ngini = 0.2659\nsamples = 38\nvalue = [32, 6]"] ;
366 -> 367 ;
368 [label="gini = 0.0\nsamples = 1\nvalue = [0, 1]"] ;
367 -> 368 ;
369 [label="X[0] <= -1.3882\ngini = 0.2337\nsamples = 37\nvalue = [32, 5]"] ;
367 -> 369 ;
370 [label="X[2] <= 0.6336\ngini = 0.095\nsamples = 20\nvalue = [19, 1]"] ;
369 -> 370 ;
371 [label="gini = 0.0\nsamples = 12\nvalue = [12, 0]"] ;
370 -> 371 ;
372 [label="X[2] <= 0.6798\ngini = 0.2188\nsamples = 8\nvalue = [7, 1]"] ;
370 -> 372 ;
373 [label="gini = 0.0\nsamples = 1\nvalue = [0, 1]"] ;
372 -> 373 ;
374 [label="gini = 0.0\nsamples = 7\nvalue = [7, 0]"] ;
372 -> 374 ;
375 [label="X[172] <= 0.5\ngini = 0.3599\nsamples = 17\nvalue = [13, 4]"] ;
369 -> 375 ;
376 [label="X[2] <= 0.0\ngini = 0.3047\nsamples = 16\nvalue = [13, 3]"] ;
375 -> 376 ;
377 [label="X[2] <= -0.888\ngini = 0.4688\nsamples = 8\nvalue = [5, 3]"] ;
376 -> 377 ;
378 [label="gini = 0.0\nsamples = 4\nvalue = [4, 0]"] ;
377 -> 378 ;
379 [label="X[12] <= 0.5\ngini = 0.375\nsamples = 4\nvalue = [1, 3]"] ;
377 -> 379 ;
380 [label="gini = 0.0\nsamples = 3\nvalue = [0, 3]"] ;
379 -> 380 ;
381 [label="gini = 0.0\nsamples = 1\nvalue = [1, 0]"] ;
379 -> 381 ;
382 [label="gini = 0.0\nsamples = 8\nvalue = [8, 0]"] ;
376 -> 382 ;
383 [label="gini = 0.0\nsamples = 1\nvalue = [0, 1]"] ;
375 -> 383 ;
384 [label="X[2] <= 0.9624\ngini = 0.1271\nsamples = 44\nvalue = [41, 3]"] ;
366 -> 384 ;
385 [label="X[184] <= 0.5\ngini = 0.0928\nsamples = 41\nvalue = [39, 2]"] ;
384 -> 385 ;
386 [label="gini = 0.0\nsamples = 23\nvalue = [23, 0]"] ;
385 -> 386 ;
387 [label="X[1] <= -1.4668\ngini = 0.1975\nsamples = 18\nvalue = [16, 2]"] ;
385 -> 387 ;
388 [label="gini = 0.0\nsamples = 8\nvalue = [8, 0]"] ;
387 -> 388 ;
389 [label="X[2] <= -0.8294\ngini = 0.32\nsamples = 10\nvalue = [8, 2]"] ;
387 -> 389 ;
390 [label="X[2] <= -1.1981\ngini = 0.5\nsamples = 2\nvalue = [1, 1]"] ;
389 -> 390 ;
391 [label="gini = 0.0\nsamples = 1\nvalue = [1, 0]"] ;
390 -> 391 ;
392 [label="gini = 0.0\nsamples = 1\nvalue = [0, 1]"] ;
390 -> 392 ;
393 [label="X[2] <= 0.4007\ngini = 0.2188\nsamples = 8\nvalue = [7, 1]"] ;
389 -> 393 ;
394 [label="gini = 0.0\nsamples = 5\nvalue = [5, 0]"] ;
393 -> 394 ;
395 [label="X[2] <= 0.5249\ngini = 0.4444\nsamples = 3\nvalue = [2, 1]"] ;
393 -> 395 ;
396 [label="gini = 0.0\nsamples = 1\nvalue = [0, 1]"] ;
395 -> 396 ;
397 [label="gini = 0.0\nsamples = 2\nvalue = [2, 0]"] ;
395 -> 397 ;
398 [label="X[2] <= 1.0983\ngini = 0.4444\nsamples = 3\nvalue = [2, 1]"] ;
384 -> 398 ;
399 [label="gini = 0.0\nsamples = 1\nvalue = [0, 1]"] ;
398 -> 399 ;
400 [label="gini = 0.0\nsamples = 2\nvalue = [2, 0]"] ;
398 -> 400 ;
401 [label="X[1] <= -1.2347\ngini = 0.0855\nsamples = 67\nvalue = [64, 3]"] ;
365 -> 401 ;
402 [label="X[2] <= -0.6049\ngini = 0.0408\nsamples = 48\nvalue = [47, 1]"] ;
401 -> 402 ;
403 [label="X[2] <= -0.6253\ngini = 0.142\nsamples = 13\nvalue = [12, 1]"] ;
402 -> 403 ;
404 [label="gini = 0.0\nsamples = 12\nvalue = [12, 0]"] ;
403 -> 404 ;
405 [label="gini = 0.0\nsamples = 1\nvalue = [0, 1]"] ;
403 -> 405 ;
406 [label="gini = 0.0\nsamples = 35\nvalue = [35, 0]"] ;
402 -> 406 ;
407 [label="X[2] <= 0.4216\ngini = 0.1884\nsamples = 19\nvalue = [17, 2]"] ;
401 -> 407 ;
408 [label="X[2] <= -1.0533\ngini = 0.1172\nsamples = 16\nvalue = [15, 1]"] ;
407 -> 408 ;
409 [label="X[2] <= -1.1663\ngini = 0.375\nsamples = 4\nvalue = [3, 1]"] ;
408 -> 409 ;
410 [label="gini = 0.0\nsamples = 3\nvalue = [3, 0]"] ;
409 -> 410 ;
411 [label="gini = 0.0\nsamples = 1\nvalue = [0, 1]"] ;
409 -> 411 ;
412 [label="gini = 0.0\nsamples = 12\nvalue = [12, 0]"] ;
408 -> 412 ;
413 [label="X[184] <= 0.5\ngini = 0.4444\nsamples = 3\nvalue = [2, 1]"] ;
407 -> 413 ;
414 [label="gini = 0.0\nsamples = 1\nvalue = [0, 1]"] ;
413 -> 414 ;
415 [label="gini = 0.0\nsamples = 2\nvalue = [2, 0]"] ;
413 -> 415 ;
416 [label="X[2] <= -1.4164\ngini = 0.0559\nsamples = 139\nvalue = [135, 4]"] ;
364 -> 416 ;
417 [label="X[2] <= -1.4378\ngini = 0.2778\nsamples = 6\nvalue = [5, 1]"] ;
416 -> 417 ;
418 [label="gini = 0.0\nsamples = 5\nvalue = [5, 0]"] ;
417 -> 418 ;
419 [label="gini = 0.0\nsamples = 1\nvalue = [0, 1]"] ;
417 -> 419 ;
420 [label="X[2] <= 0.7702\ngini = 0.0441\nsamples = 133\nvalue = [130, 3]"] ;
416 -> 420 ;
421 [label="X[1] <= -1.0027\ngini = 0.0179\nsamples = 111\nvalue = [110, 1]"] ;
420 -> 421 ;
422 [label="X[0] <= -1.279\ngini = 0.074\nsamples = 26\nvalue = [25, 1]"] ;
421 -> 422 ;
423 [label="gini = 0.0\nsamples = 16\nvalue = [16, 0]"] ;
422 -> 423 ;
424 [label="X[0] <= -1.2245\ngini = 0.18\nsamples = 10\nvalue = [9, 1]"] ;
422 -> 424 ;
425 [label="X[2] <= 0.066\ngini = 0.32\nsamples = 5\nvalue = [4, 1]"] ;
424 -> 425 ;
426 [label="gini = 0.0\nsamples = 3\nvalue = [3, 0]"] ;
425 -> 426 ;
427 [label="X[3] <= 0.5\ngini = 0.5\nsamples = 2\nvalue = [1, 1]"] ;
425 -> 427 ;
428 [label="gini = 0.0\nsamples = 1\nvalue = [1, 0]"] ;
427 -> 428 ;
429 [label="gini = 0.0\nsamples = 1\nvalue = [0, 1]"] ;
427 -> 429 ;
430 [label="gini = 0.0\nsamples = 5\nvalue = [5, 0]"] ;
424 -> 430 ;
431 [label="gini = 0.0\nsamples = 85\nvalue = [85, 0]"] ;
421 -> 431 ;
432 [label="X[2] <= 0.7977\ngini = 0.1653\nsamples = 22\nvalue = [20, 2]"] ;
420 -> 432 ;
433 [label="gini = 0.0\nsamples = 1\nvalue = [0, 1]"] ;
432 -> 433 ;
434 [label="X[1] <= -0.7706\ngini = 0.0907\nsamples = 21\nvalue = [20, 1]"] ;
432 -> 434 ;
435 [label="gini = 0.0\nsamples = 18\nvalue = [18, 0]"] ;
434 -> 435 ;
436 [label="X[11] <= 0.5\ngini = 0.4444\nsamples = 3\nvalue = [2, 1]"] ;
434 -> 436 ;
437 [label="gini = 0.0\nsamples = 1\nvalue = [0, 1]"] ;
436 -> 437 ;
438 [label="gini = 0.0\nsamples = 2\nvalue = [2, 0]"] ;
436 -> 438 ;
439 [label="X[1] <= -1.0027\ngini = 0.5\nsamples = 2\nvalue = [1, 1]"] ;
363 -> 439 ;
440 [label="gini = 0.0\nsamples = 1\nvalue = [0, 1]"] ;
439 -> 440 ;
441 [label="gini = 0.0\nsamples = 1\nvalue = [1, 0]"] ;
439 -> 441 ;
442 [label="X[9] <= 0.5\ngini = 0.1191\nsamples = 283\nvalue = [265, 18]"] ;
98 -> 442 ;
443 [label="X[2] <= 0.2503\ngini = 0.1096\nsamples = 275\nvalue = [259, 16]"] ;
442 -> 443 ;
444 [label="X[2] <= 0.2429\ngini = 0.1464\nsamples = 176\nvalue = [162, 14]"] ;
443 -> 444 ;
445 [label="X[0] <= -1.279\ngini = 0.1375\nsamples = 175\nvalue = [162, 13]"] ;
444 -> 445 ;
446 [label="X[2] <= -0.4693\ngini = 0.0818\nsamples = 117\nvalue = [112, 5]"] ;
445 -> 446 ;
447 [label="X[10] <= 0.5\ngini = 0.0244\nsamples = 81\nvalue = [80, 1]"] ;
446 -> 447 ;
448 [label="gini = 0.0\nsamples = 66\nvalue = [66, 0]"] ;
447 -> 448 ;
449 [label="X[2] <= -1.1661\ngini = 0.1244\nsamples = 15\nvalue = [14, 1]"] ;
447 -> 449 ;
450 [label="X[2] <= -1.2371\ngini = 0.2778\nsamples = 6\nvalue = [5, 1]"] ;
449 -> 450 ;
451 [label="gini = 0.0\nsamples = 5\nvalue = [5, 0]"] ;
450 -> 451 ;
452 [label="gini = 0.0\nsamples = 1\nvalue = [0, 1]"] ;
450 -> 452 ;
453 [label="gini = 0.0\nsamples = 9\nvalue = [9, 0]"] ;
449 -> 453 ;
454 [label="X[2] <= -0.4564\ngini = 0.1975\nsamples = 36\nvalue = [32, 4]"] ;
446 -> 454 ;
455 [label="gini = 0.0\nsamples = 1\nvalue = [0, 1]"] ;
454 -> 455 ;
456 [label="X[8] <= 0.5\ngini = 0.1567\nsamples = 35\nvalue = [32, 3]"] ;
454 -> 456 ;
457 [label="X[0] <= -1.3336\ngini = 0.074\nsamples = 26\nvalue = [25, 1]"] ;
456 -> 457 ;
458 [label="gini = 0.0\nsamples = 19\nvalue = [19, 0]"] ;
457 -> 458 ;
459 [label="X[2] <= 0.0386\ngini = 0.2449\nsamples = 7\nvalue = [6, 1]"] ;
457 -> 459 ;
460 [label="gini = 0.0\nsamples = 5\nvalue = [5, 0]"] ;
459 -> 460 ;
461 [label="X[184] <= 0.5\ngini = 0.5\nsamples = 2\nvalue = [1, 1]"] ;
459 -> 461 ;
462 [label="gini = 0.0\nsamples = 1\nvalue = [1, 0]"] ;
461 -> 462 ;
463 [label="gini = 0.0\nsamples = 1\nvalue = [0, 1]"] ;
461 -> 463 ;
464 [label="X[2] <= -0.2778\ngini = 0.3457\nsamples = 9\nvalue = [7, 2]"] ;
456 -> 464 ;
465 [label="gini = 0.0\nsamples = 5\nvalue = [5, 0]"] ;
464 -> 465 ;
466 [label="X[2] <= -0.1178\ngini = 0.5\nsamples = 4\nvalue = [2, 2]"] ;
464 -> 466 ;
467 [label="gini = 0.0\nsamples = 2\nvalue = [0, 2]"] ;
466 -> 467 ;
468 [label="gini = 0.0\nsamples = 2\nvalue = [2, 0]"] ;
466 -> 468 ;
469 [label="X[3] <= 0.5\ngini = 0.2378\nsamples = 58\nvalue = [50, 8]"] ;
445 -> 469 ;
470 [label="X[11] <= 0.5\ngini = 0.1139\nsamples = 33\nvalue = [31, 2]"] ;
469 -> 470 ;
471 [label="gini = 0.0\nsamples = 19\nvalue = [19, 0]"] ;
470 -> 471 ;
472 [label="X[184] <= 0.5\ngini = 0.2449\nsamples = 14\nvalue = [12, 2]"] ;
470 -> 472 ;
473 [label="gini = 0.0\nsamples = 7\nvalue = [7, 0]"] ;
472 -> 473 ;
474 [label="X[2] <= -0.0061\ngini = 0.4082\nsamples = 7\nvalue = [5, 2]"] ;
472 -> 474 ;
475 [label="X[2] <= -0.7481\ngini = 0.5\nsamples = 4\nvalue = [2, 2]"] ;
474 -> 475 ;
476 [label="gini = 0.0\nsamples = 2\nvalue = [2, 0]"] ;
475 -> 476 ;
477 [label="gini = 0.0\nsamples = 2\nvalue = [0, 2]"] ;
475 -> 477 ;
478 [label="gini = 0.0\nsamples = 3\nvalue = [3, 0]"] ;
474 -> 478 ;
479 [label="X[2] <= -1.0138\ngini = 0.3648\nsamples = 25\nvalue = [19, 6]"] ;
469 -> 479 ;
480 [label="X[12] <= 0.5\ngini = 0.375\nsamples = 4\nvalue = [1, 3]"] ;
479 -> 480 ;
481 [label="gini = 0.0\nsamples = 2\nvalue = [0, 2]"] ;
480 -> 481 ;
482 [label="X[184] <= 0.5\ngini = 0.5\nsamples = 2\nvalue = [1, 1]"] ;
480 -> 482 ;
483 [label="gini = 0.0\nsamples = 1\nvalue = [1, 0]"] ;
482 -> 483 ;
484 [label="gini = 0.0\nsamples = 1\nvalue = [0, 1]"] ;
482 -> 484 ;
485 [label="X[10] <= 0.5\ngini = 0.2449\nsamples = 21\nvalue = [18, 3]"] ;
479 -> 485 ;
486 [label="X[184] <= 0.5\ngini = 0.1172\nsamples = 16\nvalue = [15, 1]"] ;
485 -> 486 ;
487 [label="gini = 0.0\nsamples = 12\nvalue = [12, 0]"] ;
486 -> 487 ;
488 [label="X[0] <= -1.1699\ngini = 0.375\nsamples = 4\nvalue = [3, 1]"] ;
486 -> 488 ;
489 [label="gini = 0.0\nsamples = 2\nvalue = [2, 0]"] ;
488 -> 489 ;
490 [label="X[2] <= -0.3545\ngini = 0.5\nsamples = 2\nvalue = [1, 1]"] ;
488 -> 490 ;
491 [label="gini = 0.0\nsamples = 1\nvalue = [1, 0]"] ;
490 -> 491 ;
492 [label="gini = 0.0\nsamples = 1\nvalue = [0, 1]"] ;
490 -> 492 ;
493 [label="X[11] <= 0.5\ngini = 0.48\nsamples = 5\nvalue = [3, 2]"] ;
485 -> 493 ;
494 [label="gini = 0.0\nsamples = 2\nvalue = [0, 2]"] ;
493 -> 494 ;
495 [label="gini = 0.0\nsamples = 3\nvalue = [3, 0]"] ;
493 -> 495 ;
496 [label="gini = 0.0\nsamples = 1\nvalue = [0, 1]"] ;
444 -> 496 ;
497 [label="X[131] <= 0.5\ngini = 0.0396\nsamples = 99\nvalue = [97, 2]"] ;
443 -> 497 ;
498 [label="X[2] <= 1.1082\ngini = 0.0204\nsamples = 97\nvalue = [96, 1]"] ;
497 -> 498 ;
499 [label="gini = 0.0\nsamples = 89\nvalue = [89, 0]"] ;
498 -> 499 ;
500 [label="X[2] <= 1.1108\ngini = 0.2188\nsamples = 8\nvalue = [7, 1]"] ;
498 -> 500 ;
501 [label="gini = 0.0\nsamples = 1\nvalue = [0, 1]"] ;
500 -> 501 ;
502 [label="gini = 0.0\nsamples = 7\nvalue = [7, 0]"] ;
500 -> 502 ;
503 [label="X[11] <= 0.5\ngini = 0.5\nsamples = 2\nvalue = [1, 1]"] ;
497 -> 503 ;
504 [label="gini = 0.0\nsamples = 1\nvalue = [0, 1]"] ;
503 -> 504 ;
505 [label="gini = 0.0\nsamples = 1\nvalue = [1, 0]"] ;
503 -> 505 ;
506 [label="X[2] <= -0.1375\ngini = 0.375\nsamples = 8\nvalue = [6, 2]"] ;
442 -> 506 ;
507 [label="gini = 0.0\nsamples = 5\nvalue = [5, 0]"] ;
506 -> 507 ;
508 [label="X[0] <= -1.4973\ngini = 0.4444\nsamples = 3\nvalue = [1, 2]"] ;
506 -> 508 ;
509 [label="gini = 0.0\nsamples = 1\nvalue = [1, 0]"] ;
508 -> 509 ;
510 [label="gini = 0.0\nsamples = 2\nvalue = [0, 2]"] ;
508 -> 510 ;
511 [label="X[1] <= -0.8866\ngini = 0.144\nsamples = 128\nvalue = [118, 10]"] ;
97 -> 511 ;
512 [label="X[2] <= 0.2929\ngini = 0.1938\nsamples = 92\nvalue = [82, 10]"] ;
511 -> 512 ;
513 [label="X[2] <= 0.2419\ngini = 0.255\nsamples = 60\nvalue = [51, 9]"] ;
512 -> 513 ;
514 [label="X[6] <= 0.5\ngini = 0.2344\nsamples = 59\nvalue = [51, 8]"] ;
513 -> 514 ;
515 [label="X[2] <= -0.0116\ngini = 0.1049\nsamples = 36\nvalue = [34, 2]"] ;
514 -> 515 ;
516 [label="X[2] <= -0.4794\ngini = 0.0588\nsamples = 33\nvalue = [32, 1]"] ;
515 -> 516 ;
517 [label="gini = 0.0\nsamples = 22\nvalue = [22, 0]"] ;
516 -> 517 ;
518 [label="X[2] <= -0.4695\ngini = 0.1653\nsamples = 11\nvalue = [10, 1]"] ;
516 -> 518 ;
519 [label="gini = 0.0\nsamples = 1\nvalue = [0, 1]"] ;
518 -> 519 ;
520 [label="gini = 0.0\nsamples = 10\nvalue = [10, 0]"] ;
518 -> 520 ;
521 [label="X[0] <= -1.2517\ngini = 0.4444\nsamples = 3\nvalue = [2, 1]"] ;
515 -> 521 ;
522 [label="gini = 0.0\nsamples = 2\nvalue = [2, 0]"] ;
521 -> 522 ;
523 [label="gini = 0.0\nsamples = 1\nvalue = [0, 1]"] ;
521 -> 523 ;
524 [label="X[1] <= -1.1187\ngini = 0.3856\nsamples = 23\nvalue = [17, 6]"] ;
514 -> 524 ;
525 [label="X[2] <= -0.0061\ngini = 0.2604\nsamples = 13\nvalue = [11, 2]"] ;
524 -> 525 ;
526 [label="X[1] <= -1.6989\ngini = 0.1528\nsamples = 12\nvalue = [11, 1]"] ;
525 -> 526 ;
527 [label="X[2] <= -0.7957\ngini = 0.375\nsamples = 4\nvalue = [3, 1]"] ;
526 -> 527 ;
528 [label="X[11] <= 0.5\ngini = 0.5\nsamples = 2\nvalue = [1, 1]"] ;
527 -> 528 ;
529 [label="gini = 0.0\nsamples = 1\nvalue = [0, 1]"] ;
528 -> 529 ;
530 [label="gini = 0.0\nsamples = 1\nvalue = [1, 0]"] ;
528 -> 530 ;
531 [label="gini = 0.0\nsamples = 2\nvalue = [2, 0]"] ;
527 -> 531 ;
532 [label="gini = 0.0\nsamples = 8\nvalue = [8, 0]"] ;
526 -> 532 ;
533 [label="gini = 0.0\nsamples = 1\nvalue = [0, 1]"] ;
525 -> 533 ;
534 [label="X[2] <= -0.2018\ngini = 0.48\nsamples = 10\nvalue = [6, 4]"] ;
524 -> 534 ;
535 [label="X[0] <= -1.3336\ngini = 0.4444\nsamples = 6\nvalue = [2, 4]"] ;
534 -> 535 ;
536 [label="gini = 0.0\nsamples = 1\nvalue = [0, 1]"] ;
535 -> 536 ;
537 [label="X[2] <= -1.229\ngini = 0.48\nsamples = 5\nvalue = [2, 3]"] ;
535 -> 537 ;
538 [label="gini = 0.0\nsamples = 1\nvalue = [0, 1]"] ;
537 -> 538 ;
539 [label="X[12] <= 0.5\ngini = 0.5\nsamples = 4\nvalue = [2, 2]"] ;
537 -> 539 ;
540 [label="X[5] <= 0.5\ngini = 0.4444\nsamples = 3\nvalue = [1, 2]"] ;
539 -> 540 ;
541 [label="gini = 0.0\nsamples = 2\nvalue = [0, 2]"] ;
540 -> 541 ;
542 [label="gini = 0.0\nsamples = 1\nvalue = [1, 0]"] ;
540 -> 542 ;
543 [label="gini = 0.0\nsamples = 1\nvalue = [1, 0]"] ;
539 -> 543 ;
544 [label="gini = 0.0\nsamples = 4\nvalue = [4, 0]"] ;
534 -> 544 ;
545 [label="gini = 0.0\nsamples = 1\nvalue = [0, 1]"] ;
513 -> 545 ;
546 [label="X[0] <= -1.4428\ngini = 0.0605\nsamples = 32\nvalue = [31, 1]"] ;
512 -> 546 ;
547 [label="X[1] <= -1.4088\ngini = 0.32\nsamples = 5\nvalue = [4, 1]"] ;
546 -> 547 ;
548 [label="X[1] <= -1.6989\ngini = 0.5\nsamples = 2\nvalue = [1, 1]"] ;
547 -> 548 ;
549 [label="gini = 0.0\nsamples = 1\nvalue = [1, 0]"] ;
548 -> 549 ;
550 [label="gini = 0.0\nsamples = 1\nvalue = [0, 1]"] ;
548 -> 550 ;
551 [label="gini = 0.0\nsamples = 3\nvalue = [3, 0]"] ;
547 -> 551 ;
552 [label="gini = 0.0\nsamples = 27\nvalue = [27, 0]"] ;
546 -> 552 ;
553 [label="gini = 0.0\nsamples = 36\nvalue = [36, 0]"] ;
511 -> 553 ;
554 [label="X[1] <= -1.3508\ngini = 0.375\nsamples = 4\nvalue = [3, 1]"] ;
96 -> 554 ;
555 [label="gini = 0.0\nsamples = 1\nvalue = [0, 1]"] ;
554 -> 555 ;
556 [label="gini = 0.0\nsamples = 3\nvalue = [3, 0]"] ;
554 -> 556 ;
557 [label="X[7] <= 0.5\ngini = 0.2248\nsamples = 31\nvalue = [27, 4]"] ;
95 -> 557 ;
558 [label="X[1] <= -1.6409\ngini = 0.0768\nsamples = 25\nvalue = [24, 1]"] ;
557 -> 558 ;
559 [label="X[6] <= 0.5\ngini = 0.4444\nsamples = 3\nvalue = [2, 1]"] ;
558 -> 559 ;
560 [label="gini = 0.0\nsamples = 2\nvalue = [2, 0]"] ;
559 -> 560 ;
561 [label="gini = 0.0\nsamples = 1\nvalue = [0, 1]"] ;
559 -> 561 ;
562 [label="gini = 0.0\nsamples = 22\nvalue = [22, 0]"] ;
558 -> 562 ;
563 [label="X[5] <= 0.5\ngini = 0.5\nsamples = 6\nvalue = [3, 3]"] ;
557 -> 563 ;
564 [label="gini = 0.0\nsamples = 2\nvalue = [2, 0]"] ;
563 -> 564 ;
565 [label="X[1] <= -1.0027\ngini = 0.375\nsamples = 4\nvalue = [1, 3]"] ;
563 -> 565 ;
566 [label="gini = 0.0\nsamples = 3\nvalue = [0, 3]"] ;
565 -> 566 ;
567 [label="gini = 0.0\nsamples = 1\nvalue = [1, 0]"] ;
565 -> 567 ;
568 [label="X[2] <= -1.1062\ngini = 0.32\nsamples = 10\nvalue = [8, 2]"] ;
94 -> 568 ;
569 [label="gini = 0.0\nsamples = 1\nvalue = [0, 1]"] ;
568 -> 569 ;
570 [label="X[2] <= -0.8849\ngini = 0.1975\nsamples = 9\nvalue = [8, 1]"] ;
568 -> 570 ;
571 [label="X[3] <= 0.5\ngini = 0.4444\nsamples = 3\nvalue = [2, 1]"] ;
570 -> 571 ;
572 [label="gini = 0.0\nsamples = 1\nvalue = [0, 1]"] ;
571 -> 572 ;
573 [label="gini = 0.0\nsamples = 2\nvalue = [2, 0]"] ;
571 -> 573 ;
574 [label="gini = 0.0\nsamples = 6\nvalue = [6, 0]"] ;
570 -> 574 ;
575 [label="X[8] <= 0.5\ngini = 0.4444\nsamples = 3\nvalue = [2, 1]"] ;
93 -> 575 ;
576 [label="gini = 0.0\nsamples = 2\nvalue = [2, 0]"] ;
575 -> 576 ;
577 [label="gini = 0.0\nsamples = 1\nvalue = [0, 1]"] ;
575 -> 577 ;
578 [label="X[2] <= -0.2761\ngini = 0.4082\nsamples = 7\nvalue = [5, 2]"] ;
92 -> 578 ;
579 [label="X[10] <= 0.5\ngini = 0.4444\nsamples = 3\nvalue = [1, 2]"] ;
578 -> 579 ;
580 [label="gini = 0.0\nsamples = 2\nvalue = [0, 2]"] ;
579 -> 580 ;
581 [label="gini = 0.0\nsamples = 1\nvalue = [1, 0]"] ;
579 -> 581 ;
582 [label="gini = 0.0\nsamples = 4\nvalue = [4, 0]"] ;
578 -> 582 ;
583 [label="X[164] <= 0.5\ngini = 0.0725\nsamples = 7985\nvalue = [7684, 301]"] ;
91 -> 583 ;
584 [label="X[59] <= 0.5\ngini = 0.0718\nsamples = 7936\nvalue = [7640, 296]"] ;
583 -> 584 ;
585 [label="X[118] <= 0.5\ngini = 0.0713\nsamples = 7912\nvalue = [7619, 293]"] ;
584 -> 585 ;
586 [label="X[91] <= 0.5\ngini = 0.0711\nsamples = 7908\nvalue = [7616, 292]"] ;
585 -> 586 ;
587 [label="X[143] <= 0.5\ngini = 0.0706\nsamples = 7882\nvalue = [7593, 289]"] ;
586 -> 587 ;
588 [label="X[172] <= 0.5\ngini = 0.0705\nsamples = 7877\nvalue = [7589, 288]"] ;
587 -> 588 ;
589 [label="X[144] <= 0.5\ngini = 0.0712\nsamples = 7794\nvalue = [7506, 288]"] ;
588 -> 589 ;
590 [label="X[2] <= -0.8389\ngini = 0.071\nsamples = 7788\nvalue = [7501, 287]"] ;
589 -> 590 ;
591 [label="X[151] <= 0.5\ngini = 0.0598\nsamples = 2075\nvalue = [2011, 64]"] ;
590 -> 591 ;
592 [label="X[65] <= 0.5\ngini = 0.0574\nsamples = 2061\nvalue = [2000, 61]"] ;
591 -> 592 ;
593 [label="X[2] <= -1.2014\ngini = 0.0567\nsamples = 2055\nvalue = [1995, 60]"] ;
592 -> 593 ;
594 [label="X[2] <= -1.2019\ngini = 0.0697\nsamples = 941\nvalue = [907, 34]"] ;
593 -> 594 ;
595 [label="X[9] <= 0.5\ngini = 0.0677\nsamples = 940\nvalue = [907, 33]"] ;
594 -> 595 ;
596 [label="X[0] <= -0.4058\ngini = 0.0638\nsamples = 910\nvalue = [880, 30]"] ;
595 -> 596 ;
597 [label="X[2] <= -1.2152\ngini = 0.0467\nsamples = 543\nvalue = [530, 13]"] ;
596 -> 597 ;
598 [label="X[89] <= 0.5\ngini = 0.041\nsamples = 525\nvalue = [514, 11]"] ;
597 -> 598 ;
599 [label="X[7] <= 0.5\ngini = 0.0378\nsamples = 519\nvalue = [509, 10]"] ;
598 -> 599 ;
600 [label="X[2] <= -1.3449\ngini = 0.0237\nsamples = 416\nvalue = [411, 5]"] ;
599 -> 600 ;
601 [label="X[0] <= -0.5695\ngini = 0.0083\nsamples = 241\nvalue = [240, 1]"] ;
600 -> 601 ;
602 [label="gini = 0.0\nsamples = 188\nvalue = [188, 0]"] ;
601 -> 602 ;
603 [label="X[2] <= -1.4687\ngini = 0.037\nsamples = 53\nvalue = [52, 1]"] ;
601 -> 603 ;
604 [label="X[2] <= -1.4715\ngini = 0.1049\nsamples = 18\nvalue = [17, 1]"] ;
603 -> 604 ;
605 [label="gini = 0.0\nsamples = 17\nvalue = [17, 0]"] ;
604 -> 605 ;
606 [label="gini = 0.0\nsamples = 1\nvalue = [0, 1]"] ;
604 -> 606 ;
607 [label="gini = 0.0\nsamples = 35\nvalue = [35, 0]"] ;
603 -> 607 ;
608 [label="X[2] <= -1.3447\ngini = 0.0447\nsamples = 175\nvalue = [171, 4]"] ;
600 -> 608 ;
609 [label="gini = 0.0\nsamples = 1\nvalue = [0, 1]"] ;
608 -> 609 ;
610 [label="X[2] <= -1.3418\ngini = 0.0339\nsamples = 174\nvalue = [171, 3]"] ;
608 -> 610 ;
611 [label="X[2] <= -1.3424\ngini = 0.2778\nsamples = 6\nvalue = [5, 1]"] ;
610 -> 611 ;
612 [label="gini = 0.0\nsamples = 5\nvalue = [5, 0]"] ;
611 -> 612 ;
613 [label="gini = 0.0\nsamples = 1\nvalue = [0, 1]"] ;
611 -> 613 ;
614 [label="X[2] <= -1.2836\ngini = 0.0235\nsamples = 168\nvalue = [166, 2]"] ;
610 -> 614 ;
615 [label="X[2] <= -1.2839\ngini = 0.054\nsamples = 72\nvalue = [70, 2]"] ;
614 -> 615 ;
616 [label="X[1] <= -0.7706\ngini = 0.0278\nsamples = 71\nvalue = [70, 1]"] ;
615 -> 616 ;
617 [label="gini = 0.0\nsamples = 56\nvalue = [56, 0]"] ;
616 -> 617 ;
618 [label="X[11] <= 0.5\ngini = 0.1244\nsamples = 15\nvalue = [14, 1]"] ;
616 -> 618 ;
619 [label="X[5] <= 0.5\ngini = 0.32\nsamples = 5\nvalue = [4, 1]"] ;
618 -> 619 ;
620 [label="gini = 0.0\nsamples = 1\nvalue = [0, 1]"] ;
619 -> 620 ;
621 [label="gini = 0.0\nsamples = 4\nvalue = [4, 0]"] ;
619 -> 621 ;
622 [label="gini = 0.0\nsamples = 10\nvalue = [10, 0]"] ;
618 -> 622 ;
623 [label="gini = 0.0\nsamples = 1\nvalue = [0, 1]"] ;
615 -> 623 ;
624 [label="gini = 0.0\nsamples = 96\nvalue = [96, 0]"] ;
614 -> 624 ;
625 [label="X[20] <= 0.5\ngini = 0.0924\nsamples = 103\nvalue = [98, 5]"] ;
599 -> 625 ;
626 [label="X[2] <= -1.3858\ngini = 0.0754\nsamples = 102\nvalue = [98, 4]"] ;
625 -> 626 ;
627 [label="gini = 0.0\nsamples = 49\nvalue = [49, 0]"] ;
626 -> 627 ;
628 [label="X[2] <= -1.3713\ngini = 0.1396\nsamples = 53\nvalue = [49, 4]"] ;
626 -> 628 ;
629 [label="X[0] <= -0.7333\ngini = 0.48\nsamples = 5\nvalue = [2, 3]"] ;
628 -> 629 ;
630 [label="gini = 0.0\nsamples = 3\nvalue = [0, 3]"] ;
629 -> 630 ;
631 [label="gini = 0.0\nsamples = 2\nvalue = [2, 0]"] ;
629 -> 631 ;
632 [label="X[2] <= -1.2515\ngini = 0.0408\nsamples = 48\nvalue = [47, 1]"] ;
628 -> 632 ;
633 [label="gini = 0.0\nsamples = 37\nvalue = [37, 0]"] ;
632 -> 633 ;
634 [label="X[2] <= -1.2489\ngini = 0.1653\nsamples = 11\nvalue = [10, 1]"] ;
632 -> 634 ;
635 [label="gini = 0.0\nsamples = 1\nvalue = [0, 1]"] ;
634 -> 635 ;
636 [label="gini = 0.0\nsamples = 10\nvalue = [10, 0]"] ;
634 -> 636 ;
637 [label="gini = 0.0\nsamples = 1\nvalue = [0, 1]"] ;
625 -> 637 ;
638 [label="X[2] <= -1.3207\ngini = 0.2778\nsamples = 6\nvalue = [5, 1]"] ;
598 -> 638 ;
639 [label="X[6] <= 0.5\ngini = 0.5\nsamples = 2\nvalue = [1, 1]"] ;
638 -> 639 ;
640 [label="gini = 0.0\nsamples = 1\nvalue = [1, 0]"] ;
639 -> 640 ;
641 [label="gini = 0.0\nsamples = 1\nvalue = [0, 1]"] ;
639 -> 641 ;
642 [label="gini = 0.0\nsamples = 4\nvalue = [4, 0]"] ;
638 -> 642 ;
643 [label="X[1] <= -1.1187\ngini = 0.1975\nsamples = 18\nvalue = [16, 2]"] ;
597 -> 643 ;
644 [label="X[5] <= 0.5\ngini = 0.4444\nsamples = 3\nvalue = [1, 2]"] ;
643 -> 644 ;
645 [label="gini = 0.0\nsamples = 1\nvalue = [1, 0]"] ;
644 -> 645 ;
646 [label="gini = 0.0\nsamples = 2\nvalue = [0, 2]"] ;
644 -> 646 ;
647 [label="gini = 0.0\nsamples = 15\nvalue = [15, 0]"] ;
643 -> 647 ;
648 [label="X[97] <= 0.5\ngini = 0.0884\nsamples = 367\nvalue = [350, 17]"] ;
596 -> 648 ;
649 [label="X[184] <= 0.5\ngini = 0.077\nsamples = 349\nvalue = [335, 14]"] ;
648 -> 649 ;
650 [label="X[45] <= 0.5\ngini = 0.0216\nsamples = 183\nvalue = [181, 2]"] ;
649 -> 650 ;
651 [label="X[183] <= 0.5\ngini = 0.0115\nsamples = 173\nvalue = [172, 1]"] ;
650 -> 651 ;
652 [label="gini = 0.0\nsamples = 160\nvalue = [160, 0]"] ;
651 -> 652 ;
653 [label="X[2] <= -1.3924\ngini = 0.142\nsamples = 13\nvalue = [12, 1]"] ;
651 -> 653 ;
654 [label="X[8] <= 0.5\ngini = 0.375\nsamples = 4\nvalue = [3, 1]"] ;
653 -> 654 ;
655 [label="gini = 0.0\nsamples = 3\nvalue = [3, 0]"] ;
654 -> 655 ;
656 [label="gini = 0.0\nsamples = 1\nvalue = [0, 1]"] ;
654 -> 656 ;
657 [label="gini = 0.0\nsamples = 9\nvalue = [9, 0]"] ;
653 -> 657 ;
658 [label="X[1] <= -0.6545\ngini = 0.18\nsamples = 10\nvalue = [9, 1]"] ;
650 -> 658 ;
659 [label="gini = 0.0\nsamples = 9\nvalue = [9, 0]"] ;
658 -> 659 ;
660 [label="gini = 0.0\nsamples = 1\nvalue = [0, 1]"] ;
658 -> 660 ;
661 [label="X[2] <= -1.259\ngini = 0.1341\nsamples = 166\nvalue = [154, 12]"] ;
649 -> 661 ;
662 [label="X[0] <= -0.1875\ngini = 0.0963\nsamples = 138\nvalue = [131, 7]"] ;
661 -> 662 ;
663 [label="X[2] <= -1.4533\ngini = 0.1483\nsamples = 62\nvalue = [57, 5]"] ;
662 -> 663 ;
664 [label="gini = 0.0\nsamples = 16\nvalue = [16, 0]"] ;
663 -> 664 ;
665 [label="X[2] <= -1.4464\ngini = 0.1938\nsamples = 46\nvalue = [41, 5]"] ;
663 -> 665 ;
666 [label="X[2] <= -1.4497\ngini = 0.4444\nsamples = 3\nvalue = [1, 2]"] ;
665 -> 666 ;
667 [label="gini = 0.0\nsamples = 1\nvalue = [0, 1]"] ;
666 -> 667 ;
668 [label="X[2] <= -1.447\ngini = 0.5\nsamples = 2\nvalue = [1, 1]"] ;
666 -> 668 ;
669 [label="gini = 0.0\nsamples = 1\nvalue = [1, 0]"] ;
668 -> 669 ;
670 [label="gini = 0.0\nsamples = 1\nvalue = [0, 1]"] ;
668 -> 670 ;
671 [label="X[2] <= -1.3739\ngini = 0.1298\nsamples = 43\nvalue = [40, 3]"] ;
665 -> 671 ;
672 [label="gini = 0.0\nsamples = 19\nvalue = [19, 0]"] ;
671 -> 672 ;
673 [label="X[2] <= -1.3701\ngini = 0.2188\nsamples = 24\nvalue = [21, 3]"] ;
671 -> 673 ;
674 [label="gini = 0.0\nsamples = 1\nvalue = [0, 1]"] ;
673 -> 674 ;
675 [label="X[6] <= 0.5\ngini = 0.1588\nsamples = 23\nvalue = [21, 2]"] ;
673 -> 675 ;
676 [label="gini = 0.0\nsamples = 13\nvalue = [13, 0]"] ;
675 -> 676 ;
677 [label="X[11] <= 0.5\ngini = 0.32\nsamples = 10\nvalue = [8, 2]"] ;
675 -> 677 ;
678 [label="X[1] <= -1.6409\ngini = 0.5\nsamples = 2\nvalue = [1, 1]"] ;
677 -> 678 ;
679 [label="gini = 0.0\nsamples = 1\nvalue = [1, 0]"] ;
678 -> 679 ;
680 [label="gini = 0.0\nsamples = 1\nvalue = [0, 1]"] ;
678 -> 680 ;
681 [label="X[1] <= -1.1767\ngini = 0.2188\nsamples = 8\nvalue = [7, 1]"] ;
677 -> 681 ;
682 [label="gini = 0.0\nsamples = 5\nvalue = [5, 0]"] ;
681 -> 682 ;
683 [label="X[2] <= -1.3304\ngini = 0.4444\nsamples = 3\nvalue = [2, 1]"] ;
681 -> 683 ;
684 [label="gini = 0.0\nsamples = 2\nvalue = [2, 0]"] ;
683 -> 684 ;
685 [label="gini = 0.0\nsamples = 1\nvalue = [0, 1]"] ;
683 -> 685 ;
686 [label="X[0] <= 0.0308\ngini = 0.0512\nsamples = 76\nvalue = [74, 2]"] ;
662 -> 686 ;
687 [label="gini = 0.0\nsamples = 57\nvalue = [57, 0]"] ;
686 -> 687 ;
688 [label="X[1] <= -1.5829\ngini = 0.1884\nsamples = 19\nvalue = [17, 2]"] ;
686 -> 688 ;
689 [label="gini = 0.0\nsamples = 1\nvalue = [0, 1]"] ;
688 -> 689 ;
690 [label="X[2] <= -1.5185\ngini = 0.1049\nsamples = 18\nvalue = [17, 1]"] ;
688 -> 690 ;
691 [label="X[12] <= 0.5\ngini = 0.5\nsamples = 2\nvalue = [1, 1]"] ;
690 -> 691 ;
692 [label="gini = 0.0\nsamples = 1\nvalue = [1, 0]"] ;
691 -> 692 ;
693 [label="gini = 0.0\nsamples = 1\nvalue = [0, 1]"] ;
691 -> 693 ;
694 [label="gini = 0.0\nsamples = 16\nvalue = [16, 0]"] ;
690 -> 694 ;
695 [label="X[2] <= -1.2529\ngini = 0.2934\nsamples = 28\nvalue = [23, 5]"] ;
661 -> 695 ;
696 [label="X[0] <= -0.1875\ngini = 0.4444\nsamples = 3\nvalue = [1, 2]"] ;
695 -> 696 ;
697 [label="gini = 0.0\nsamples = 2\nvalue = [0, 2]"] ;
696 -> 697 ;
698 [label="gini = 0.0\nsamples = 1\nvalue = [1, 0]"] ;
696 -> 698 ;
699 [label="X[10] <= 0.5\ngini = 0.2112\nsamples = 25\nvalue = [22, 3]"] ;
695 -> 699 ;
700 [label="X[1] <= -1.0027\ngini = 0.0907\nsamples = 21\nvalue = [20, 1]"] ;
699 -> 700 ;
701 [label="gini = 0.0\nsamples = 16\nvalue = [16, 0]"] ;
700 -> 701 ;
702 [label="X[1] <= -0.8866\ngini = 0.32\nsamples = 5\nvalue = [4, 1]"] ;
700 -> 702 ;
703 [label="gini = 0.0\nsamples = 1\nvalue = [0, 1]"] ;
702 -> 703 ;
704 [label="gini = 0.0\nsamples = 4\nvalue = [4, 0]"] ;
702 -> 704 ;
705 [label="X[2] <= -1.2483\ngini = 0.5\nsamples = 4\nvalue = [2, 2]"] ;
699 -> 705 ;
706 [label="gini = 0.0\nsamples = 1\nvalue = [1, 0]"] ;
705 -> 706 ;
707 [label="X[0] <= -0.051\ngini = 0.4444\nsamples = 3\nvalue = [1, 2]"] ;
705 -> 707 ;
708 [label="gini = 0.0\nsamples = 2\nvalue = [0, 2]"] ;
707 -> 708 ;
709 [label="gini = 0.0\nsamples = 1\nvalue = [1, 0]"] ;
707 -> 709 ;
710 [label="X[2] <= -1.3184\ngini = 0.2778\nsamples = 18\nvalue = [15, 3]"] ;
648 -> 710 ;
711 [label="X[2] <= -1.3333\ngini = 0.3967\nsamples = 11\nvalue = [8, 3]"] ;
710 -> 711 ;
712 [label="X[6] <= 0.5\ngini = 0.32\nsamples = 10\nvalue = [8, 2]"] ;
711 -> 712 ;
713 [label="gini = 0.0\nsamples = 6\nvalue = [6, 0]"] ;
712 -> 713 ;
714 [label="X[3] <= 0.5\ngini = 0.5\nsamples = 4\nvalue = [2, 2]"] ;
712 -> 714 ;
715 [label="X[1] <= -1.4088\ngini = 0.4444\nsamples = 3\nvalue = [2, 1]"] ;
714 -> 715 ;
716 [label="gini = 0.0\nsamples = 1\nvalue = [0, 1]"] ;
715 -> 716 ;
717 [label="gini = 0.0\nsamples = 2\nvalue = [2, 0]"] ;
715 -> 717 ;
718 [label="gini = 0.0\nsamples = 1\nvalue = [0, 1]"] ;
714 -> 718 ;
719 [label="gini = 0.0\nsamples = 1\nvalue = [0, 1]"] ;
711 -> 719 ;
720 [label="gini = 0.0\nsamples = 7\nvalue = [7, 0]"] ;
710 -> 720 ;
721 [label="X[2] <= -1.478\ngini = 0.18\nsamples = 30\nvalue = [27, 3]"] ;
595 -> 721 ;
722 [label="gini = 0.0\nsamples = 2\nvalue = [0, 2]"] ;
721 -> 722 ;
723 [label="X[2] <= -1.2308\ngini = 0.0689\nsamples = 28\nvalue = [27, 1]"] ;
721 -> 723 ;
724 [label="gini = 0.0\nsamples = 25\nvalue = [25, 0]"] ;
723 -> 724 ;
725 [label="X[1] <= -1.0027\ngini = 0.4444\nsamples = 3\nvalue = [2, 1]"] ;
723 -> 725 ;
726 [label="gini = 0.0\nsamples = 2\nvalue = [2, 0]"] ;
725 -> 726 ;
727 [label="gini = 0.0\nsamples = 1\nvalue = [0, 1]"] ;
725 -> 727 ;
728 [label="gini = 0.0\nsamples = 1\nvalue = [0, 1]"] ;
594 -> 728 ;
729 [label="X[146] <= 0.5\ngini = 0.0456\nsamples = 1114\nvalue = [1088, 26]"] ;
593 -> 729 ;
730 [label="X[2] <= -1.138\ngini = 0.0441\nsamples = 1109\nvalue = [1084, 25]"] ;
729 -> 730 ;
731 [label="gini = 0.0\nsamples = 181\nvalue = [181, 0]"] ;
730 -> 731 ;
732 [label="X[2] <= -1.1376\ngini = 0.0524\nsamples = 928\nvalue = [903, 25]"] ;
730 -> 732 ;
733 [label="gini = 0.0\nsamples = 1\nvalue = [0, 1]"] ;
732 -> 733 ;
734 [label="X[2] <= -1.1359\ngini = 0.0504\nsamples = 927\nvalue = [903, 24]"] ;
732 -> 734 ;
735 [label="X[0] <= -0.897\ngini = 0.2778\nsamples = 6\nvalue = [5, 1]"] ;
734 -> 735 ;
736 [label="gini = 0.0\nsamples = 1\nvalue = [0, 1]"] ;
735 -> 736 ;
737 [label="gini = 0.0\nsamples = 5\nvalue = [5, 0]"] ;
735 -> 737 ;
738 [label="X[169] <= 0.5\ngini = 0.0487\nsamples = 921\nvalue = [898, 23]"] ;
734 -> 738 ;
739 [label="X[45] <= 0.5\ngini = 0.047\nsamples = 914\nvalue = [892, 22]"] ;
738 -> 739 ;
740 [label="X[10] <= 0.5\ngini = 0.0439\nsamples = 891\nvalue = [871, 20]"] ;
739 -> 740 ;
741 [label="X[2] <= -1.1034\ngini = 0.0357\nsamples = 771\nvalue = [757, 14]"] ;
740 -> 741 ;
742 [label="X[2] <= -1.104\ngini = 0.1049\nsamples = 72\nvalue = [68, 4]"] ;
741 -> 742 ;
743 [label="X[95] <= 0.5\ngini = 0.0809\nsamples = 71\nvalue = [68, 3]"] ;
742 -> 743 ;
744 [label="X[2] <= -1.1178\ngini = 0.0571\nsamples = 68\nvalue = [66, 2]"] ;
743 -> 744 ;
745 [label="gini = 0.0\nsamples = 43\nvalue = [43, 0]"] ;
744 -> 745 ;
746 [label="X[2] <= -1.1174\ngini = 0.1472\nsamples = 25\nvalue = [23, 2]"] ;
744 -> 746 ;
747 [label="gini = 0.0\nsamples = 1\nvalue = [0, 1]"] ;
746 -> 747 ;
748 [label="X[2] <= -1.1153\ngini = 0.0799\nsamples = 24\nvalue = [23, 1]"] ;
746 -> 748 ;
749 [label="X[2] <= -1.1155\ngini = 0.375\nsamples = 4\nvalue = [3, 1]"] ;
748 -> 749 ;
750 [label="gini = 0.0\nsamples = 3\nvalue = [3, 0]"] ;
749 -> 750 ;
751 [label="gini = 0.0\nsamples = 1\nvalue = [0, 1]"] ;
749 -> 751 ;
752 [label="gini = 0.0\nsamples = 20\nvalue = [20, 0]"] ;
748 -> 752 ;
753 [label="X[0] <= -0.6241\ngini = 0.4444\nsamples = 3\nvalue = [2, 1]"] ;
743 -> 753 ;
754 [label="gini = 0.0\nsamples = 2\nvalue = [2, 0]"] ;
753 -> 754 ;
755 [label="gini = 0.0\nsamples = 1\nvalue = [0, 1]"] ;
753 -> 755 ;
756 [label="gini = 0.0\nsamples = 1\nvalue = [0, 1]"] ;
742 -> 756 ;
757 [label="X[184] <= 0.5\ngini = 0.0282\nsamples = 699\nvalue = [689, 10]"] ;
741 -> 757 ;
758 [label="gini = 0.0\nsamples = 319\nvalue = [319, 0]"] ;
757 -> 758 ;
759 [label="X[0] <= 0.0308\ngini = 0.0512\nsamples = 380\nvalue = [370, 10]"] ;
757 -> 759 ;
760 [label="X[0] <= -1.0607\ngini = 0.0432\nsamples = 362\nvalue = [354, 8]"] ;
759 -> 760 ;
761 [label="X[7] <= 0.5\ngini = 0.2188\nsamples = 8\nvalue = [7, 1]"] ;
760 -> 761 ;
762 [label="gini = 0.0\nsamples = 6\nvalue = [6, 0]"] ;
761 -> 762 ;
763 [label="X[3] <= 0.5\ngini = 0.5\nsamples = 2\nvalue = [1, 1]"] ;
761 -> 763 ;
764 [label="gini = 0.0\nsamples = 1\nvalue = [1, 0]"] ;
763 -> 764 ;
765 [label="gini = 0.0\nsamples = 1\nvalue = [0, 1]"] ;
763 -> 765 ;
766 [label="X[0] <= -0.4604\ngini = 0.0388\nsamples = 354\nvalue = [347, 7]"] ;
760 -> 766 ;
767 [label="X[1] <= -1.4668\ngini = 0.01\nsamples = 198\nvalue = [197, 1]"] ;
766 -> 767 ;
768 [label="X[8] <= 0.5\ngini = 0.0512\nsamples = 38\nvalue = [37, 1]"] ;
767 -> 768 ;
769 [label="gini = 0.0\nsamples = 27\nvalue = [27, 0]"] ;
768 -> 769 ;
770 [label="X[1] <= -1.5829\ngini = 0.1653\nsamples = 11\nvalue = [10, 1]"] ;
768 -> 770 ;
771 [label="gini = 0.0\nsamples = 7\nvalue = [7, 0]"] ;
770 -> 771 ;
772 [label="X[11] <= 0.5\ngini = 0.375\nsamples = 4\nvalue = [3, 1]"] ;
770 -> 772 ;
773 [label="gini = 0.0\nsamples = 2\nvalue = [2, 0]"] ;
772 -> 773 ;
774 [label="X[0] <= -0.8151\ngini = 0.5\nsamples = 2\nvalue = [1, 1]"] ;
772 -> 774 ;
775 [label="gini = 0.0\nsamples = 1\nvalue = [1, 0]"] ;
774 -> 775 ;
776 [label="gini = 0.0\nsamples = 1\nvalue = [0, 1]"] ;
774 -> 776 ;
777 [label="gini = 0.0\nsamples = 160\nvalue = [160, 0]"] ;
767 -> 777 ;
778 [label="X[12] <= 0.5\ngini = 0.074\nsamples = 156\nvalue = [150, 6]"] ;
766 -> 778 ;
779 [label="gini = 0.0\nsamples = 61\nvalue = [61, 0]"] ;
778 -> 779 ;
780 [label="X[2] <= -0.9589\ngini = 0.1183\nsamples = 95\nvalue = [89, 6]"] ;
778 -> 780 ;
781 [label="X[2] <= -1.0449\ngini = 0.0677\nsamples = 57\nvalue = [55, 2]"] ;
780 -> 781 ;
782 [label="X[2] <= -1.0481\ngini = 0.1528\nsamples = 24\nvalue = [22, 2]"] ;
781 -> 782 ;
783 [label="X[1] <= -1.2347\ngini = 0.0832\nsamples = 23\nvalue = [22, 1]"] ;
782 -> 783 ;
784 [label="X[1] <= -1.4088\ngini = 0.2188\nsamples = 8\nvalue = [7, 1]"] ;
783 -> 784 ;
785 [label="gini = 0.0\nsamples = 6\nvalue = [6, 0]"] ;
784 -> 785 ;
786 [label="X[2] <= -1.0914\ngini = 0.5\nsamples = 2\nvalue = [1, 1]"] ;
784 -> 786 ;
787 [label="gini = 0.0\nsamples = 1\nvalue = [1, 0]"] ;
786 -> 787 ;
788 [label="gini = 0.0\nsamples = 1\nvalue = [0, 1]"] ;
786 -> 788 ;
789 [label="gini = 0.0\nsamples = 15\nvalue = [15, 0]"] ;
783 -> 789 ;
790 [label="gini = 0.0\nsamples = 1\nvalue = [0, 1]"] ;
782 -> 790 ;
791 [label="gini = 0.0\nsamples = 33\nvalue = [33, 0]"] ;
781 -> 791 ;
792 [label="X[2] <= -0.939\ngini = 0.1884\nsamples = 38\nvalue = [34, 4]"] ;
780 -> 792 ;
793 [label="X[2] <= -0.9455\ngini = 0.4898\nsamples = 7\nvalue = [4, 3]"] ;
792 -> 793 ;
794 [label="X[1] <= -0.8286\ngini = 0.32\nsamples = 5\nvalue = [4, 1]"] ;
793 -> 794 ;
795 [label="gini = 0.0\nsamples = 4\nvalue = [4, 0]"] ;
794 -> 795 ;
796 [label="gini = 0.0\nsamples = 1\nvalue = [0, 1]"] ;
794 -> 796 ;
797 [label="gini = 0.0\nsamples = 2\nvalue = [0, 2]"] ;
793 -> 797 ;
798 [label="X[2] <= -0.8992\ngini = 0.0624\nsamples = 31\nvalue = [30, 1]"] ;
792 -> 798 ;
799 [label="X[2] <= -0.8996\ngini = 0.1528\nsamples = 12\nvalue = [11, 1]"] ;
798 -> 799 ;
800 [label="gini = 0.0\nsamples = 11\nvalue = [11, 0]"] ;
799 -> 800 ;
801 [label="gini = 0.0\nsamples = 1\nvalue = [0, 1]"] ;
799 -> 801 ;
802 [label="gini = 0.0\nsamples = 19\nvalue = [19, 0]"] ;
798 -> 802 ;
803 [label="X[6] <= 0.5\ngini = 0.1975\nsamples = 18\nvalue = [16, 2]"] ;
759 -> 803 ;
804 [label="gini = 0.0\nsamples = 11\nvalue = [11, 0]"] ;
803 -> 804 ;
805 [label="X[2] <= -0.9032\ngini = 0.4082\nsamples = 7\nvalue = [5, 2]"] ;
803 -> 805 ;
806 [label="gini = 0.0\nsamples = 4\nvalue = [4, 0]"] ;
805 -> 806 ;
807 [label="X[2] <= -0.877\ngini = 0.4444\nsamples = 3\nvalue = [1, 2]"] ;
805 -> 807 ;
808 [label="gini = 0.0\nsamples = 2\nvalue = [0, 2]"] ;
807 -> 808 ;
809 [label="gini = 0.0\nsamples = 1\nvalue = [1, 0]"] ;
807 -> 809 ;
810 [label="X[0] <= -0.8424\ngini = 0.095\nsamples = 120\nvalue = [114, 6]"] ;
740 -> 810 ;
811 [label="X[184] <= 0.5\ngini = 0.2778\nsamples = 24\nvalue = [20, 4]"] ;
810 -> 811 ;
812 [label="X[12] <= 0.5\ngini = 0.3911\nsamples = 15\nvalue = [11, 4]"] ;
811 -> 812 ;
813 [label="X[0] <= -0.897\ngini = 0.1975\nsamples = 9\nvalue = [8, 1]"] ;
812 -> 813 ;
814 [label="gini = 0.0\nsamples = 7\nvalue = [7, 0]"] ;
813 -> 814 ;
815 [label="X[86] <= 0.5\ngini = 0.5\nsamples = 2\nvalue = [1, 1]"] ;
813 -> 815 ;
816 [label="gini = 0.0\nsamples = 1\nvalue = [0, 1]"] ;
815 -> 816 ;
817 [label="gini = 0.0\nsamples = 1\nvalue = [1, 0]"] ;
815 -> 817 ;
818 [label="X[1] <= -1.1187\ngini = 0.5\nsamples = 6\nvalue = [3, 3]"] ;
812 -> 818 ;
819 [label="X[0] <= -1.0334\ngini = 0.375\nsamples = 4\nvalue = [3, 1]"] ;
818 -> 819 ;
820 [label="gini = 0.0\nsamples = 2\nvalue = [2, 0]"] ;
819 -> 820 ;
821 [label="X[3] <= 0.5\ngini = 0.5\nsamples = 2\nvalue = [1, 1]"] ;
819 -> 821 ;
822 [label="gini = 0.0\nsamples = 1\nvalue = [1, 0]"] ;
821 -> 822 ;
823 [label="gini = 0.0\nsamples = 1\nvalue = [0, 1]"] ;
821 -> 823 ;
824 [label="gini = 0.0\nsamples = 2\nvalue = [0, 2]"] ;
818 -> 824 ;
825 [label="gini = 0.0\nsamples = 9\nvalue = [9, 0]"] ;
811 -> 825 ;
826 [label="X[184] <= 0.5\ngini = 0.0408\nsamples = 96\nvalue = [94, 2]"] ;
810 -> 826 ;
827 [label="gini = 0.0\nsamples = 62\nvalue = [62, 0]"] ;
826 -> 827 ;
828 [label="X[1] <= -1.1187\ngini = 0.1107\nsamples = 34\nvalue = [32, 2]"] ;
826 -> 828 ;
829 [label="X[2] <= -1.061\ngini = 0.1884\nsamples = 19\nvalue = [17, 2]"] ;
828 -> 829 ;
830 [label="X[2] <= -1.0807\ngini = 0.4444\nsamples = 3\nvalue = [2, 1]"] ;
829 -> 830 ;
831 [label="gini = 0.0\nsamples = 2\nvalue = [2, 0]"] ;
830 -> 831 ;
832 [label="gini = 0.0\nsamples = 1\nvalue = [0, 1]"] ;
830 -> 832 ;
833 [label="X[0] <= -0.1056\ngini = 0.1172\nsamples = 16\nvalue = [15, 1]"] ;
829 -> 833 ;
834 [label="gini = 0.0\nsamples = 15\nvalue = [15, 0]"] ;
833 -> 834 ;
835 [label="gini = 0.0\nsamples = 1\nvalue = [0, 1]"] ;
833 -> 835 ;
836 [label="gini = 0.0\nsamples = 15\nvalue = [15, 0]"] ;
828 -> 836 ;
837 [label="X[6] <= 0.5\ngini = 0.1588\nsamples = 23\nvalue = [21, 2]"] ;
739 -> 837 ;
838 [label="gini = 0.0\nsamples = 13\nvalue = [13, 0]"] ;
837 -> 838 ;
839 [label="X[1] <= -0.9446\ngini = 0.32\nsamples = 10\nvalue = [8, 2]"] ;
837 -> 839 ;
840 [label="X[11] <= 0.5\ngini = 0.5\nsamples = 4\nvalue = [2, 2]"] ;
839 -> 840 ;
841 [label="gini = 0.0\nsamples = 2\nvalue = [2, 0]"] ;
840 -> 841 ;
842 [label="gini = 0.0\nsamples = 2\nvalue = [0, 2]"] ;
840 -> 842 ;
843 [label="gini = 0.0\nsamples = 6\nvalue = [6, 0]"] ;
839 -> 843 ;
844 [label="X[8] <= 0.5\ngini = 0.2449\nsamples = 7\nvalue = [6, 1]"] ;
738 -> 844 ;
845 [label="gini = 0.0\nsamples = 5\nvalue = [5, 0]"] ;
844 -> 845 ;
846 [label="X[3] <= 0.5\ngini = 0.5\nsamples = 2\nvalue = [1, 1]"] ;
844 -> 846 ;
847 [label="gini = 0.0\nsamples = 1\nvalue = [0, 1]"] ;
846 -> 847 ;
848 [label="gini = 0.0\nsamples = 1\nvalue = [1, 0]"] ;
846 -> 848 ;
849 [label="X[8] <= 0.5\ngini = 0.32\nsamples = 5\nvalue = [4, 1]"] ;
729 -> 849 ;
850 [label="gini = 0.0\nsamples = 4\nvalue = [4, 0]"] ;
849 -> 850 ;
851 [label="gini = 0.0\nsamples = 1\nvalue = [0, 1]"] ;
849 -> 851 ;
852 [label="X[1] <= -1.4668\ngini = 0.2778\nsamples = 6\nvalue = [5, 1]"] ;
592 -> 852 ;
853 [label="gini = 0.0\nsamples = 1\nvalue = [0, 1]"] ;
852 -> 853 ;
854 [label="gini = 0.0\nsamples = 5\nvalue = [5, 0]"] ;
852 -> 854 ;
855 [label="X[3] <= 0.5\ngini = 0.3367\nsamples = 14\nvalue = [11, 3]"] ;
591 -> 855 ;
856 [label="gini = 0.0\nsamples = 8\nvalue = [8, 0]"] ;
855 -> 856 ;
857 [label="X[12] <= 0.5\ngini = 0.5\nsamples = 6\nvalue = [3, 3]"] ;
855 -> 857 ;
858 [label="gini = 0.0\nsamples = 2\nvalue = [2, 0]"] ;
857 -> 858 ;
859 [label="X[7] <= 0.5\ngini = 0.375\nsamples = 4\nvalue = [1, 3]"] ;
857 -> 859 ;
860 [label="gini = 0.0\nsamples = 3\nvalue = [0, 3]"] ;
859 -> 860 ;
861 [label="gini = 0.0\nsamples = 1\nvalue = [1, 0]"] ;
859 -> 861 ;
862 [label="X[2] <= -0.8384\ngini = 0.075\nsamples = 5713\nvalue = [5490, 223]"] ;
590 -> 862 ;
863 [label="gini = 0.0\nsamples = 1\nvalue = [0, 1]"] ;
862 -> 863 ;
864 [label="X[2] <= -0.4235\ngini = 0.0747\nsamples = 5712\nvalue = [5490, 222]"] ;
862 -> 864 ;
865 [label="X[2] <= -0.4243\ngini = 0.1026\nsamples = 1180\nvalue = [1116, 64]"] ;
864 -> 865 ;
866 [label="X[0] <= -0.2421\ngini = 0.1012\nsamples = 1179\nvalue = [1116, 63]"] ;
865 -> 866 ;
867 [label="X[2] <= -0.4798\ngini = 0.1239\nsamples = 844\nvalue = [788, 56]"] ;
866 -> 867 ;
868 [label="X[18] <= 0.5\ngini = 0.1078\nsamples = 735\nvalue = [693, 42]"] ;
867 -> 868 ;
869 [label="X[11] <= 0.5\ngini = 0.1055\nsamples = 734\nvalue = [693, 41]"] ;
868 -> 869 ;
870 [label="X[7] <= 0.5\ngini = 0.0738\nsamples = 443\nvalue = [426, 17]"] ;
869 -> 870 ;
871 [label="X[95] <= 0.5\ngini = 0.0523\nsamples = 372\nvalue = [362, 10]"] ;
870 -> 871 ;
872 [label="X[178] <= 0.5\ngini = 0.0475\nsamples = 370\nvalue = [361, 9]"] ;
871 -> 872 ;
873 [label="X[73] <= 0.5\ngini = 0.0426\nsamples = 367\nvalue = [359, 8]"] ;
872 -> 873 ;
874 [label="X[2] <= -0.5934\ngini = 0.0381\nsamples = 360\nvalue = [353, 7]"] ;
873 -> 874 ;
875 [label="X[0] <= -0.9516\ngini = 0.0157\nsamples = 253\nvalue = [251, 2]"] ;
874 -> 875 ;
876 [label="X[6] <= 0.5\ngini = 0.0768\nsamples = 50\nvalue = [48, 2]"] ;
875 -> 876 ;
877 [label="gini = 0.0\nsamples = 27\nvalue = [27, 0]"] ;
876 -> 877 ;
878 [label="X[2] <= -0.7767\ngini = 0.1588\nsamples = 23\nvalue = [21, 2]"] ;
876 -> 878 ;
879 [label="X[1] <= -1.2347\ngini = 0.5\nsamples = 2\nvalue = [1, 1]"] ;
878 -> 879 ;
880 [label="gini = 0.0\nsamples = 1\nvalue = [1, 0]"] ;
879 -> 880 ;
881 [label="gini = 0.0\nsamples = 1\nvalue = [0, 1]"] ;
879 -> 881 ;
882 [label="X[2] <= -0.6587\ngini = 0.0907\nsamples = 21\nvalue = [20, 1]"] ;
878 -> 882 ;
883 [label="gini = 0.0\nsamples = 16\nvalue = [16, 0]"] ;
882 -> 883 ;
884 [label="X[2] <= -0.6452\ngini = 0.32\nsamples = 5\nvalue = [4, 1]"] ;
882 -> 884 ;
885 [label="gini = 0.0\nsamples = 1\nvalue = [0, 1]"] ;
884 -> 885 ;
886 [label="gini = 0.0\nsamples = 4\nvalue = [4, 0]"] ;
884 -> 886 ;
887 [label="gini = 0.0\nsamples = 203\nvalue = [203, 0]"] ;
875 -> 887 ;
888 [label="X[2] <= -0.5926\ngini = 0.0891\nsamples = 107\nvalue = [102, 5]"] ;
874 -> 888 ;
889 [label="gini = 0.0\nsamples = 1\nvalue = [0, 1]"] ;
888 -> 889 ;
890 [label="X[9] <= 0.5\ngini = 0.0726\nsamples = 106\nvalue = [102, 4]"] ;
888 -> 890 ;
891 [label="X[1] <= -1.6989\ngini = 0.0571\nsamples = 102\nvalue = [99, 3]"] ;
890 -> 891 ;
892 [label="X[97] <= 0.5\ngini = 0.32\nsamples = 5\nvalue = [4, 1]"] ;
891 -> 892 ;
893 [label="gini = 0.0\nsamples = 4\nvalue = [4, 0]"] ;
892 -> 893 ;
894 [label="gini = 0.0\nsamples = 1\nvalue = [0, 1]"] ;
892 -> 894 ;
895 [label="X[1] <= -0.8866\ngini = 0.0404\nsamples = 97\nvalue = [95, 2]"] ;
891 -> 895 ;
896 [label="gini = 0.0\nsamples = 58\nvalue = [58, 0]"] ;
895 -> 896 ;
897 [label="X[184] <= 0.5\ngini = 0.0973\nsamples = 39\nvalue = [37, 2]"] ;
895 -> 897 ;
898 [label="gini = 0.0\nsamples = 19\nvalue = [19, 0]"] ;
897 -> 898 ;
899 [label="X[2] <= -0.538\ngini = 0.18\nsamples = 20\nvalue = [18, 2]"] ;
897 -> 899 ;
900 [label="gini = 0.0\nsamples = 11\nvalue = [11, 0]"] ;
899 -> 900 ;
901 [label="X[2] <= -0.5306\ngini = 0.3457\nsamples = 9\nvalue = [7, 2]"] ;
899 -> 901 ;
902 [label="gini = 0.0\nsamples = 1\nvalue = [0, 1]"] ;
901 -> 902 ;
903 [label="X[0] <= -0.515\ngini = 0.2188\nsamples = 8\nvalue = [7, 1]"] ;
901 -> 903 ;
904 [label="gini = 0.0\nsamples = 6\nvalue = [6, 0]"] ;
903 -> 904 ;
905 [label="X[5] <= 0.5\ngini = 0.5\nsamples = 2\nvalue = [1, 1]"] ;
903 -> 905 ;
906 [label="gini = 0.0\nsamples = 1\nvalue = [0, 1]"] ;
905 -> 906 ;
907 [label="gini = 0.0\nsamples = 1\nvalue = [1, 0]"] ;
905 -> 907 ;
908 [label="X[1] <= -0.8286\ngini = 0.375\nsamples = 4\nvalue = [3, 1]"] ;
890 -> 908 ;
909 [label="gini = 0.0\nsamples = 3\nvalue = [3, 0]"] ;
908 -> 909 ;
910 [label="gini = 0.0\nsamples = 1\nvalue = [0, 1]"] ;
908 -> 910 ;
911 [label="X[0] <= -0.9516\ngini = 0.2449\nsamples = 7\nvalue = [6, 1]"] ;
873 -> 911 ;
912 [label="gini = 0.0\nsamples = 1\nvalue = [0, 1]"] ;
911 -> 912 ;
913 [label="gini = 0.0\nsamples = 6\nvalue = [6, 0]"] ;
911 -> 913 ;
914 [label="X[1] <= -0.7706\ngini = 0.4444\nsamples = 3\nvalue = [2, 1]"] ;
872 -> 914 ;
915 [label="gini = 0.0\nsamples = 2\nvalue = [2, 0]"] ;
914 -> 915 ;
916 [label="gini = 0.0\nsamples = 1\nvalue = [0, 1]"] ;
914 -> 916 ;
917 [label="X[1] <= -1.1767\ngini = 0.5\nsamples = 2\nvalue = [1, 1]"] ;
871 -> 917 ;
918 [label="gini = 0.0\nsamples = 1\nvalue = [0, 1]"] ;
917 -> 918 ;
919 [label="gini = 0.0\nsamples = 1\nvalue = [1, 0]"] ;
917 -> 919 ;
920 [label="X[184] <= 0.5\ngini = 0.1777\nsamples = 71\nvalue = [64, 7]"] ;
870 -> 920 ;
921 [label="X[0] <= -0.3512\ngini = 0.0425\nsamples = 46\nvalue = [45, 1]"] ;
920 -> 921 ;
922 [label="gini = 0.0\nsamples = 43\nvalue = [43, 0]"] ;
921 -> 922 ;
923 [label="X[2] <= -0.6721\ngini = 0.4444\nsamples = 3\nvalue = [2, 1]"] ;
921 -> 923 ;
924 [label="gini = 0.0\nsamples = 2\nvalue = [2, 0]"] ;
923 -> 924 ;
925 [label="gini = 0.0\nsamples = 1\nvalue = [0, 1]"] ;
923 -> 925 ;
926 [label="X[0] <= -0.897\ngini = 0.3648\nsamples = 25\nvalue = [19, 6]"] ;
920 -> 926 ;
927 [label="X[1] <= -1.1187\ngini = 0.5\nsamples = 8\nvalue = [4, 4]"] ;
926 -> 927 ;
928 [label="X[2] <= -0.8032\ngini = 0.4444\nsamples = 6\nvalue = [4, 2]"] ;
927 -> 928 ;
929 [label="gini = 0.0\nsamples = 1\nvalue = [0, 1]"] ;
928 -> 929 ;
930 [label="X[0] <= -1.0607\ngini = 0.32\nsamples = 5\nvalue = [4, 1]"] ;
928 -> 930 ;
931 [label="X[2] <= -0.5948\ngini = 0.5\nsamples = 2\nvalue = [1, 1]"] ;
930 -> 931 ;
932 [label="gini = 0.0\nsamples = 1\nvalue = [0, 1]"] ;
931 -> 932 ;
933 [label="gini = 0.0\nsamples = 1\nvalue = [1, 0]"] ;
931 -> 933 ;
934 [label="gini = 0.0\nsamples = 3\nvalue = [3, 0]"] ;
930 -> 934 ;
935 [label="gini = 0.0\nsamples = 2\nvalue = [0, 2]"] ;
927 -> 935 ;
936 [label="X[2] <= -0.6516\ngini = 0.2076\nsamples = 17\nvalue = [15, 2]"] ;
926 -> 936 ;
937 [label="gini = 0.0\nsamples = 12\nvalue = [12, 0]"] ;
936 -> 937 ;
938 [label="X[2] <= -0.5327\ngini = 0.48\nsamples = 5\nvalue = [3, 2]"] ;
936 -> 938 ;
939 [label="X[1] <= -0.8286\ngini = 0.4444\nsamples = 3\nvalue = [1, 2]"] ;
938 -> 939 ;
940 [label="gini = 0.0\nsamples = 2\nvalue = [0, 2]"] ;
939 -> 940 ;
941 [label="gini = 0.0\nsamples = 1\nvalue = [1, 0]"] ;
939 -> 941 ;
942 [label="gini = 0.0\nsamples = 2\nvalue = [2, 0]"] ;
938 -> 942 ;
943 [label="X[183] <= 0.5\ngini = 0.1513\nsamples = 291\nvalue = [267, 24]"] ;
869 -> 943 ;
944 [label="X[2] <= -0.6442\ngini = 0.1425\nsamples = 285\nvalue = [263, 22]"] ;
943 -> 944 ;
945 [label="X[2] <= -0.8101\ngini = 0.0956\nsamples = 159\nvalue = [151, 8]"] ;
944 -> 945 ;
946 [label="X[8] <= 0.5\ngini = 0.2659\nsamples = 19\nvalue = [16, 3]"] ;
945 -> 946 ;
947 [label="X[2] <= -0.8325\ngini = 0.1172\nsamples = 16\nvalue = [15, 1]"] ;
946 -> 947 ;
948 [label="X[2] <= -0.833\ngini = 0.2778\nsamples = 6\nvalue = [5, 1]"] ;
947 -> 948 ;
949 [label="gini = 0.0\nsamples = 5\nvalue = [5, 0]"] ;
948 -> 949 ;
950 [label="gini = 0.0\nsamples = 1\nvalue = [0, 1]"] ;
948 -> 950 ;
951 [label="gini = 0.0\nsamples = 10\nvalue = [10, 0]"] ;
947 -> 951 ;
952 [label="X[2] <= -0.8294\ngini = 0.4444\nsamples = 3\nvalue = [1, 2]"] ;
946 -> 952 ;
953 [label="gini = 0.0\nsamples = 1\nvalue = [1, 0]"] ;
952 -> 953 ;
954 [label="gini = 0.0\nsamples = 2\nvalue = [0, 2]"] ;
952 -> 954 ;
955 [label="X[10] <= 0.5\ngini = 0.0689\nsamples = 140\nvalue = [135, 5]"] ;
945 -> 955 ;
956 [label="X[0] <= -0.2966\ngini = 0.0328\nsamples = 120\nvalue = [118, 2]"] ;
955 -> 956 ;
957 [label="gini = 0.0\nsamples = 105\nvalue = [105, 0]"] ;
956 -> 957 ;
958 [label="X[2] <= -0.7564\ngini = 0.2311\nsamples = 15\nvalue = [13, 2]"] ;
956 -> 958 ;
959 [label="gini = 0.0\nsamples = 6\nvalue = [6, 0]"] ;
958 -> 959 ;
960 [label="X[2] <= -0.736\ngini = 0.3457\nsamples = 9\nvalue = [7, 2]"] ;
958 -> 960 ;
961 [label="X[184] <= 0.5\ngini = 0.4444\nsamples = 3\nvalue = [1, 2]"] ;
960 -> 961 ;
962 [label="gini = 0.0\nsamples = 1\nvalue = [1, 0]"] ;
961 -> 962 ;
963 [label="gini = 0.0\nsamples = 2\nvalue = [0, 2]"] ;
961 -> 963 ;
964 [label="gini = 0.0\nsamples = 6\nvalue = [6, 0]"] ;
960 -> 964 ;
965 [label="X[0] <= -0.9516\ngini = 0.255\nsamples = 20\nvalue = [17, 3]"] ;
955 -> 965 ;
966 [label="X[0] <= -1.0061\ngini = 0.4444\nsamples = 6\nvalue = [4, 2]"] ;
965 -> 966 ;
967 [label="gini = 0.0\nsamples = 3\nvalue = [3, 0]"] ;
966 -> 967 ;
968 [label="X[2] <= -0.7388\ngini = 0.4444\nsamples = 3\nvalue = [1, 2]"] ;
966 -> 968 ;
969 [label="gini = 0.0\nsamples = 1\nvalue = [1, 0]"] ;
968 -> 969 ;
970 [label="gini = 0.0\nsamples = 2\nvalue = [0, 2]"] ;
968 -> 970 ;
971 [label="X[1] <= -0.6545\ngini = 0.1327\nsamples = 14\nvalue = [13, 1]"] ;
965 -> 971 ;
972 [label="gini = 0.0\nsamples = 10\nvalue = [10, 0]"] ;
971 -> 972 ;
973 [label="X[2] <= -0.7374\ngini = 0.375\nsamples = 4\nvalue = [3, 1]"] ;
971 -> 973 ;
974 [label="gini = 0.0\nsamples = 2\nvalue = [2, 0]"] ;
973 -> 974 ;
975 [label="X[0] <= -0.5695\ngini = 0.5\nsamples = 2\nvalue = [1, 1]"] ;
973 -> 975 ;
976 [label="gini = 0.0\nsamples = 1\nvalue = [0, 1]"] ;
975 -> 976 ;
977 [label="gini = 0.0\nsamples = 1\nvalue = [1, 0]"] ;
975 -> 977 ;
978 [label="X[2] <= -0.6431\ngini = 0.1975\nsamples = 126\nvalue = [112, 14]"] ;
944 -> 978 ;
979 [label="gini = 0.0\nsamples = 2\nvalue = [0, 2]"] ;
978 -> 979 ;
980 [label="X[2] <= -0.6016\ngini = 0.1748\nsamples = 124\nvalue = [112, 12]"] ;
978 -> 980 ;
981 [label="X[0] <= -0.4058\ngini = 0.3367\nsamples = 28\nvalue = [22, 6]"] ;
980 -> 981 ;
982 [label="X[169] <= 0.5\ngini = 0.2268\nsamples = 23\nvalue = [20, 3]"] ;
981 -> 982 ;
983 [label="X[184] <= 0.5\ngini = 0.1653\nsamples = 22\nvalue = [20, 2]"] ;
982 -> 983 ;
984 [label="gini = 0.0\nsamples = 12\nvalue = [12, 0]"] ;
983 -> 984 ;
985 [label="X[0] <= -0.8697\ngini = 0.32\nsamples = 10\nvalue = [8, 2]"] ;
983 -> 985 ;
986 [label="gini = 0.0\nsamples = 1\nvalue = [0, 1]"] ;
985 -> 986 ;
987 [label="X[0] <= -0.5422\ngini = 0.1975\nsamples = 9\nvalue = [8, 1]"] ;
985 -> 987 ;
988 [label="gini = 0.0\nsamples = 6\nvalue = [6, 0]"] ;
987 -> 988 ;
989 [label="X[3] <= 0.5\ngini = 0.4444\nsamples = 3\nvalue = [2, 1]"] ;
987 -> 989 ;
990 [label="gini = 0.0\nsamples = 1\nvalue = [0, 1]"] ;
989 -> 990 ;
991 [label="gini = 0.0\nsamples = 2\nvalue = [2, 0]"] ;
989 -> 991 ;
992 [label="gini = 0.0\nsamples = 1\nvalue = [0, 1]"] ;
982 -> 992 ;
993 [label="X[1] <= -1.1187\ngini = 0.48\nsamples = 5\nvalue = [2, 3]"] ;
981 -> 993 ;
994 [label="gini = 0.0\nsamples = 2\nvalue = [2, 0]"] ;
993 -> 994 ;
995 [label="gini = 0.0\nsamples = 3\nvalue = [0, 3]"] ;
993 -> 995 ;
996 [label="X[73] <= 0.5\ngini = 0.1172\nsamples = 96\nvalue = [90, 6]"] ;
980 -> 996 ;
997 [label="X[45] <= 0.5\ngini = 0.0832\nsamples = 92\nvalue = [88, 4]"] ;
996 -> 997 ;
998 [label="X[2] <= -0.5658\ngini = 0.0651\nsamples = 89\nvalue = [86, 3]"] ;
997 -> 998 ;
999 [label="X[2] <= -0.5691\ngini = 0.2188\nsamples = 24\nvalue = [21, 3]"] ;
998 -> 999 ;
1000 [label="X[3] <= 0.5\ngini = 0.0907\nsamples = 21\nvalue = [20, 1]"] ;
999 -> 1000 ;
1001 [label="X[0] <= -0.8424\ngini = 0.2188\nsamples = 8\nvalue = [7, 1]"] ;
1000 -> 1001 ;
1002 [label="X[0] <= -0.9243\ngini = 0.4444\nsamples = 3\nvalue = [2, 1]"] ;
1001 -> 1002 ;
1003 [label="gini = 0.0\nsamples = 2\nvalue = [2, 0]"] ;
1002 -> 1003 ;
1004 [label="gini = 0.0\nsamples = 1\nvalue = [0, 1]"] ;
1002 -> 1004 ;
1005 [label="gini = 0.0\nsamples = 5\nvalue = [5, 0]"] ;
1001 -> 1005 ;
1006 [label="gini = 0.0\nsamples = 13\nvalue = [13, 0]"] ;
1000 -> 1006 ;
1007 [label="X[6] <= 0.5\ngini = 0.4444\nsamples = 3\nvalue = [1, 2]"] ;
999 -> 1007 ;
1008 [label="gini = 0.0\nsamples = 2\nvalue = [0, 2]"] ;
1007 -> 1008 ;
1009 [label="gini = 0.0\nsamples = 1\nvalue = [1, 0]"] ;
1007 -> 1009 ;
1010 [label="gini = 0.0\nsamples = 65\nvalue = [65, 0]"] ;
998 -> 1010 ;
1011 [label="X[5] <= 0.5\ngini = 0.4444\nsamples = 3\nvalue = [2, 1]"] ;
997 -> 1011 ;
1012 [label="gini = 0.0\nsamples = 2\nvalue = [2, 0]"] ;
1011 -> 1012 ;
1013 [label="gini = 0.0\nsamples = 1\nvalue = [0, 1]"] ;
1011 -> 1013 ;
1014 [label="X[2] <= -0.5622\ngini = 0.5\nsamples = 4\nvalue = [2, 2]"] ;
996 -> 1014 ;
1015 [label="gini = 0.0\nsamples = 2\nvalue = [2, 0]"] ;
1014 -> 1015 ;
1016 [label="gini = 0.0\nsamples = 2\nvalue = [0, 2]"] ;
1014 -> 1016 ;
1017 [label="X[2] <= -0.7247\ngini = 0.4444\nsamples = 6\nvalue = [4, 2]"] ;
943 -> 1017 ;
1018 [label="X[7] <= 0.5\ngini = 0.4444\nsamples = 3\nvalue = [1, 2]"] ;
1017 -> 1018 ;
1019 [label="gini = 0.0\nsamples = 2\nvalue = [0, 2]"] ;
1018 -> 1019 ;
1020 [label="gini = 0.0\nsamples = 1\nvalue = [1, 0]"] ;
1018 -> 1020 ;
1021 [label="gini = 0.0\nsamples = 3\nvalue = [3, 0]"] ;
1017 -> 1021 ;
1022 [label="gini = 0.0\nsamples = 1\nvalue = [0, 1]"] ;
868 -> 1022 ;
1023 [label="X[2] <= -0.4792\ngini = 0.2239\nsamples = 109\nvalue = [95, 14]"] ;
867 -> 1023 ;
1024 [label="gini = 0.0\nsamples = 1\nvalue = [0, 1]"] ;
1023 -> 1024 ;
1025 [label="X[1] <= -0.8866\ngini = 0.2118\nsamples = 108\nvalue = [95, 13]"] ;
1023 -> 1025 ;
1026 [label="X[2] <= -0.4768\ngini = 0.1244\nsamples = 60\nvalue = [56, 4]"] ;
1025 -> 1026 ;
1027 [label="X[2] <= -0.4778\ngini = 0.4444\nsamples = 3\nvalue = [1, 2]"] ;
1026 -> 1027 ;
1028 [label="gini = 0.0\nsamples = 1\nvalue = [1, 0]"] ;
1027 -> 1028 ;
1029 [label="gini = 0.0\nsamples = 2\nvalue = [0, 2]"] ;
1027 -> 1029 ;
1030 [label="X[1] <= -1.6989\ngini = 0.0677\nsamples = 57\nvalue = [55, 2]"] ;
1026 -> 1030 ;
1031 [label="X[0] <= -0.6787\ngini = 0.375\nsamples = 4\nvalue = [3, 1]"] ;
1030 -> 1031 ;
1032 [label="gini = 0.0\nsamples = 3\nvalue = [3, 0]"] ;
1031 -> 1032 ;
1033 [label="gini = 0.0\nsamples = 1\nvalue = [0, 1]"] ;
1031 -> 1033 ;
1034 [label="X[0] <= -1.0061\ngini = 0.037\nsamples = 53\nvalue = [52, 1]"] ;
1030 -> 1034 ;
1035 [label="X[7] <= 0.5\ngini = 0.375\nsamples = 4\nvalue = [3, 1]"] ;
1034 -> 1035 ;
1036 [label="gini = 0.0\nsamples = 3\nvalue = [3, 0]"] ;
1035 -> 1036 ;
1037 [label="gini = 0.0\nsamples = 1\nvalue = [0, 1]"] ;
1035 -> 1037 ;
1038 [label="gini = 0.0\nsamples = 49\nvalue = [49, 0]"] ;
1034 -> 1038 ;
1039 [label="X[0] <= -1.0607\ngini = 0.3047\nsamples = 48\nvalue = [39, 9]"] ;
1025 -> 1039 ;
1040 [label="X[1] <= -0.7126\ngini = 0.4444\nsamples = 3\nvalue = [1, 2]"] ;
1039 -> 1040 ;
1041 [label="gini = 0.0\nsamples = 2\nvalue = [0, 2]"] ;
1040 -> 1041 ;
1042 [label="gini = 0.0\nsamples = 1\nvalue = [1, 0]"] ;
1040 -> 1042 ;
1043 [label="X[2] <= -0.4423\ngini = 0.2627\nsamples = 45\nvalue = [38, 7]"] ;
1039 -> 1043 ;
1044 [label="X[12] <= 0.5\ngini = 0.1699\nsamples = 32\nvalue = [29, 3]"] ;
1043 -> 1044 ;
1045 [label="gini = 0.0\nsamples = 13\nvalue = [13, 0]"] ;
1044 -> 1045 ;
1046 [label="X[0] <= -0.7333\ngini = 0.2659\nsamples = 19\nvalue = [16, 3]"] ;
1044 -> 1046 ;
1047 [label="gini = 0.0\nsamples = 7\nvalue = [7, 0]"] ;
1046 -> 1047 ;
1048 [label="X[0] <= -0.6787\ngini = 0.375\nsamples = 12\nvalue = [9, 3]"] ;
1046 -> 1048 ;
1049 [label="gini = 0.0\nsamples = 1\nvalue = [0, 1]"] ;
1048 -> 1049 ;
1050 [label="X[1] <= -0.7706\ngini = 0.2975\nsamples = 11\nvalue = [9, 2]"] ;
1048 -> 1050 ;
1051 [label="X[2] <= -0.4517\ngini = 0.5\nsamples = 4\nvalue = [2, 2]"] ;
1050 -> 1051 ;
1052 [label="gini = 0.0\nsamples = 2\nvalue = [0, 2]"] ;
1051 -> 1052 ;
1053 [label="gini = 0.0\nsamples = 2\nvalue = [2, 0]"] ;
1051 -> 1053 ;
1054 [label="gini = 0.0\nsamples = 7\nvalue = [7, 0]"] ;
1050 -> 1054 ;
1055 [label="X[2] <= -0.4396\ngini = 0.426\nsamples = 13\nvalue = [9, 4]"] ;
1043 -> 1055 ;
1056 [label="gini = 0.0\nsamples = 3\nvalue = [0, 3]"] ;
1055 -> 1056 ;
1057 [label="X[77] <= 0.5\ngini = 0.18\nsamples = 10\nvalue = [9, 1]"] ;
1055 -> 1057 ;
1058 [label="gini = 0.0\nsamples = 9\nvalue = [9, 0]"] ;
1057 -> 1058 ;
1059 [label="gini = 0.0\nsamples = 1\nvalue = [0, 1]"] ;
1057 -> 1059 ;
1060 [label="X[20] <= 0.5\ngini = 0.0409\nsamples = 335\nvalue = [328, 7]"] ;
866 -> 1060 ;
1061 [label="X[2] <= -0.5016\ngini = 0.0356\nsamples = 331\nvalue = [325, 6]"] ;
1060 -> 1061 ;
1062 [label="X[7] <= 0.5\ngini = 0.0141\nsamples = 281\nvalue = [279, 2]"] ;
1061 -> 1062 ;
1063 [label="gini = 0.0\nsamples = 236\nvalue = [236, 0]"] ;
1062 -> 1063 ;
1064 [label="X[97] <= 0.5\ngini = 0.0849\nsamples = 45\nvalue = [43, 2]"] ;
1062 -> 1064 ;
1065 [label="X[1] <= -1.3508\ngini = 0.0476\nsamples = 41\nvalue = [40, 1]"] ;
1064 -> 1065 ;
1066 [label="X[1] <= -1.4668\ngini = 0.1653\nsamples = 11\nvalue = [10, 1]"] ;
1065 -> 1066 ;
1067 [label="gini = 0.0\nsamples = 10\nvalue = [10, 0]"] ;
1066 -> 1067 ;
1068 [label="gini = 0.0\nsamples = 1\nvalue = [0, 1]"] ;
1066 -> 1068 ;
1069 [label="gini = 0.0\nsamples = 30\nvalue = [30, 0]"] ;
1065 -> 1069 ;
1070 [label="X[1] <= -0.9446\ngini = 0.375\nsamples = 4\nvalue = [3, 1]"] ;
1064 -> 1070 ;
1071 [label="gini = 0.0\nsamples = 3\nvalue = [3, 0]"] ;
1070 -> 1071 ;
1072 [label="gini = 0.0\nsamples = 1\nvalue = [0, 1]"] ;
1070 -> 1072 ;
1073 [label="X[2] <= -0.4993\ngini = 0.1472\nsamples = 50\nvalue = [46, 4]"] ;
1061 -> 1073 ;
1074 [label="gini = 0.0\nsamples = 1\nvalue = [0, 1]"] ;
1073 -> 1074 ;
1075 [label="X[2] <= -0.4813\ngini = 0.115\nsamples = 49\nvalue = [46, 3]"] ;
1073 -> 1075 ;
1076 [label="X[183] <= 0.5\ngini = 0.355\nsamples = 13\nvalue = [10, 3]"] ;
1075 -> 1076 ;
1077 [label="X[9] <= 0.5\ngini = 0.2778\nsamples = 12\nvalue = [10, 2]"] ;
1076 -> 1077 ;
1078 [label="X[77] <= 0.5\ngini = 0.1653\nsamples = 11\nvalue = [10, 1]"] ;
1077 -> 1078 ;
1079 [label="gini = 0.0\nsamples = 9\nvalue = [9, 0]"] ;
1078 -> 1079 ;
1080 [label="X[2] <= -0.4913\ngini = 0.5\nsamples = 2\nvalue = [1, 1]"] ;
1078 -> 1080 ;
1081 [label="gini = 0.0\nsamples = 1\nvalue = [0, 1]"] ;
1080 -> 1081 ;
1082 [label="gini = 0.0\nsamples = 1\nvalue = [1, 0]"] ;
1080 -> 1082 ;
1083 [label="gini = 0.0\nsamples = 1\nvalue = [0, 1]"] ;
1077 -> 1083 ;
1084 [label="gini = 0.0\nsamples = 1\nvalue = [0, 1]"] ;
1076 -> 1084 ;
1085 [label="gini = 0.0\nsamples = 36\nvalue = [36, 0]"] ;
1075 -> 1085 ;
1086 [label="X[2] <= -0.7856\ngini = 0.375\nsamples = 4\nvalue = [3, 1]"] ;
1060 -> 1086 ;
1087 [label="gini = 0.0\nsamples = 1\nvalue = [0, 1]"] ;
1086 -> 1087 ;
1088 [label="gini = 0.0\nsamples = 3\nvalue = [3, 0]"] ;
1086 -> 1088 ;
1089 [label="gini = 0.0\nsamples = 1\nvalue = [0, 1]"] ;
865 -> 1089 ;
1090 [label="X[27] <= 0.5\ngini = 0.0673\nsamples = 4532\nvalue = [4374, 158]"] ;
864 -> 1090 ;
1091 [label="X[137] <= 0.5\ngini = 0.0669\nsamples = 4530\nvalue = [4373, 157]"] ;
1090 -> 1091 ;
1092 [label="X[2] <= -0.1698\ngini = 0.066\nsamples = 4505\nvalue = [4351, 154]"] ;
1091 -> 1092 ;
1093 [label="X[90] <= 0.5\ngini = 0.0426\nsamples = 734\nvalue = [718, 16]"] ;
1092 -> 1093 ;
1094 [label="X[0] <= -0.3512\ngini = 0.0402\nsamples = 731\nvalue = [716, 15]"] ;
1093 -> 1094 ;
1095 [label="X[184] <= 0.5\ngini = 0.0212\nsamples = 467\nvalue = [462, 5]"] ;
1094 -> 1095 ;
1096 [label="gini = 0.0\nsamples = 272\nvalue = [272, 0]"] ;
1095 -> 1096 ;
1097 [label="X[0] <= -0.9516\ngini = 0.05\nsamples = 195\nvalue = [190, 5]"] ;
1095 -> 1097 ;
1098 [label="X[9] <= 0.5\ngini = 0.1454\nsamples = 38\nvalue = [35, 3]"] ;
1097 -> 1098 ;
1099 [label="X[2] <= -0.1932\ngini = 0.1049\nsamples = 36\nvalue = [34, 2]"] ;
1098 -> 1099 ;
1100 [label="X[7] <= 0.5\ngini = 0.0588\nsamples = 33\nvalue = [32, 1]"] ;
1099 -> 1100 ;
1101 [label="gini = 0.0\nsamples = 27\nvalue = [27, 0]"] ;
1100 -> 1101 ;
1102 [label="X[1] <= -0.7706\ngini = 0.2778\nsamples = 6\nvalue = [5, 1]"] ;
1100 -> 1102 ;
1103 [label="gini = 0.0\nsamples = 4\nvalue = [4, 0]"] ;
1102 -> 1103 ;
1104 [label="X[5] <= 0.5\ngini = 0.5\nsamples = 2\nvalue = [1, 1]"] ;
1102 -> 1104 ;
1105 [label="gini = 0.0\nsamples = 1\nvalue = [0, 1]"] ;
1104 -> 1105 ;
1106 [label="gini = 0.0\nsamples = 1\nvalue = [1, 0]"] ;
1104 -> 1106 ;
1107 [label="X[2] <= -0.1837\ngini = 0.4444\nsamples = 3\nvalue = [2, 1]"] ;
1099 -> 1107 ;
1108 [label="gini = 0.0\nsamples = 1\nvalue = [0, 1]"] ;
1107 -> 1108 ;
1109 [label="gini = 0.0\nsamples = 2\nvalue = [2, 0]"] ;
1107 -> 1109 ;
1110 [label="X[2] <= -0.3476\ngini = 0.5\nsamples = 2\nvalue = [1, 1]"] ;
1098 -> 1110 ;
1111 [label="gini = 0.0\nsamples = 1\nvalue = [0, 1]"] ;
1110 -> 1111 ;
1112 [label="gini = 0.0\nsamples = 1\nvalue = [1, 0]"] ;
1110 -> 1112 ;
1113 [label="X[1] <= -0.8866\ngini = 0.0252\nsamples = 157\nvalue = [155, 2]"] ;
1097 -> 1113 ;
1114 [label="gini = 0.0\nsamples = 94\nvalue = [94, 0]"] ;
1113 -> 1114 ;
1115 [label="X[2] <= -0.346\ngini = 0.0615\nsamples = 63\nvalue = [61, 2]"] ;
1113 -> 1115 ;
1116 [label="gini = 0.0\nsamples = 27\nvalue = [27, 0]"] ;
1115 -> 1116 ;
1117 [label="X[2] <= -0.343\ngini = 0.1049\nsamples = 36\nvalue = [34, 2]"] ;
1115 -> 1117 ;
1118 [label="gini = 0.0\nsamples = 1\nvalue = [0, 1]"] ;
1117 -> 1118 ;
1119 [label="X[10] <= 0.5\ngini = 0.0555\nsamples = 35\nvalue = [34, 1]"] ;
1117 -> 1119 ;
1120 [label="gini = 0.0\nsamples = 27\nvalue = [27, 0]"] ;
1119 -> 1120 ;
1121 [label="X[2] <= -0.2382\ngini = 0.2188\nsamples = 8\nvalue = [7, 1]"] ;
1119 -> 1121 ;
1122 [label="X[2] <= -0.2913\ngini = 0.5\nsamples = 2\nvalue = [1, 1]"] ;
1121 -> 1122 ;
1123 [label="gini = 0.0\nsamples = 1\nvalue = [1, 0]"] ;
1122 -> 1123 ;
1124 [label="gini = 0.0\nsamples = 1\nvalue = [0, 1]"] ;
1122 -> 1124 ;
1125 [label="gini = 0.0\nsamples = 6\nvalue = [6, 0]"] ;
1121 -> 1125 ;
1126 [label="X[2] <= -0.3112\ngini = 0.0729\nsamples = 264\nvalue = [254, 10]"] ;
1094 -> 1126 ;
1127 [label="X[97] <= 0.5\ngini = 0.0354\nsamples = 111\nvalue = [109, 2]"] ;
1126 -> 1127 ;
1128 [label="X[1] <= -0.7706\ngini = 0.0196\nsamples = 101\nvalue = [100, 1]"] ;
1127 -> 1128 ;
1129 [label="gini = 0.0\nsamples = 69\nvalue = [69, 0]"] ;
1128 -> 1129 ;
1130 [label="X[0] <= -0.0783\ngini = 0.0605\nsamples = 32\nvalue = [31, 1]"] ;
1128 -> 1130 ;
1131 [label="gini = 0.0\nsamples = 18\nvalue = [18, 0]"] ;
1130 -> 1131 ;
1132 [label="X[6] <= 0.5\ngini = 0.1327\nsamples = 14\nvalue = [13, 1]"] ;
1130 -> 1132 ;
1133 [label="gini = 0.0\nsamples = 8\nvalue = [8, 0]"] ;
1132 -> 1133 ;
1134 [label="X[12] <= 0.5\ngini = 0.2778\nsamples = 6\nvalue = [5, 1]"] ;
1132 -> 1134 ;
1135 [label="gini = 0.0\nsamples = 3\nvalue = [3, 0]"] ;
1134 -> 1135 ;
1136 [label="X[2] <= -0.385\ngini = 0.4444\nsamples = 3\nvalue = [2, 1]"] ;
1134 -> 1136 ;
1137 [label="gini = 0.0\nsamples = 2\nvalue = [2, 0]"] ;
1136 -> 1137 ;
1138 [label="gini = 0.0\nsamples = 1\nvalue = [0, 1]"] ;
1136 -> 1138 ;
1139 [label="X[2] <= -0.4062\ngini = 0.18\nsamples = 10\nvalue = [9, 1]"] ;
1127 -> 1139 ;
1140 [label="X[6] <= 0.5\ngini = 0.5\nsamples = 2\nvalue = [1, 1]"] ;
1139 -> 1140 ;
1141 [label="gini = 0.0\nsamples = 1\nvalue = [0, 1]"] ;
1140 -> 1141 ;
1142 [label="gini = 0.0\nsamples = 1\nvalue = [1, 0]"] ;
1140 -> 1142 ;
1143 [label="gini = 0.0\nsamples = 8\nvalue = [8, 0]"] ;
1139 -> 1143 ;
1144 [label="X[2] <= -0.3106\ngini = 0.0991\nsamples = 153\nvalue = [145, 8]"] ;
1126 -> 1144 ;
1145 [label="gini = 0.0\nsamples = 1\nvalue = [0, 1]"] ;
1144 -> 1145 ;
1146 [label="X[73] <= 0.5\ngini = 0.0879\nsamples = 152\nvalue = [145, 7]"] ;
1144 -> 1146 ;
1147 [label="X[184] <= 0.5\ngini = 0.0778\nsamples = 148\nvalue = [142, 6]"] ;
1146 -> 1147 ;
1148 [label="X[0] <= 0.0308\ngini = 0.026\nsamples = 76\nvalue = [75, 1]"] ;
1147 -> 1148 ;
1149 [label="gini = 0.0\nsamples = 68\nvalue = [68, 0]"] ;
1148 -> 1149 ;
1150 [label="X[10] <= 0.5\ngini = 0.2188\nsamples = 8\nvalue = [7, 1]"] ;
1148 -> 1150 ;
1151 [label="gini = 0.0\nsamples = 6\nvalue = [6, 0]"] ;
1150 -> 1151 ;
1152 [label="X[1] <= -1.3508\ngini = 0.5\nsamples = 2\nvalue = [1, 1]"] ;
1150 -> 1152 ;
1153 [label="gini = 0.0\nsamples = 1\nvalue = [1, 0]"] ;
1152 -> 1153 ;
1154 [label="gini = 0.0\nsamples = 1\nvalue = [0, 1]"] ;
1152 -> 1154 ;
1155 [label="X[0] <= -0.2421\ngini = 0.1292\nsamples = 72\nvalue = [67, 5]"] ;
1147 -> 1155 ;
1156 [label="gini = 0.0\nsamples = 19\nvalue = [19, 0]"] ;
1155 -> 1156 ;
1157 [label="X[2] <= -0.2818\ngini = 0.1709\nsamples = 53\nvalue = [48, 5]"] ;
1155 -> 1157 ;
1158 [label="gini = 0.0\nsamples = 14\nvalue = [14, 0]"] ;
1157 -> 1158 ;
1159 [label="X[2] <= -0.2785\ngini = 0.2235\nsamples = 39\nvalue = [34, 5]"] ;
1157 -> 1159 ;
1160 [label="X[12] <= 0.5\ngini = 0.4444\nsamples = 3\nvalue = [1, 2]"] ;
1159 -> 1160 ;
1161 [label="gini = 0.0\nsamples = 2\nvalue = [0, 2]"] ;
1160 -> 1161 ;
1162 [label="gini = 0.0\nsamples = 1\nvalue = [1, 0]"] ;
1160 -> 1162 ;
1163 [label="X[1] <= -1.3508\ngini = 0.1528\nsamples = 36\nvalue = [33, 3]"] ;
1159 -> 1163 ;
1164 [label="X[8] <= 0.5\ngini = 0.3457\nsamples = 9\nvalue = [7, 2]"] ;
1163 -> 1164 ;
1165 [label="gini = 0.0\nsamples = 6\nvalue = [6, 0]"] ;
1164 -> 1165 ;
1166 [label="X[2] <= -0.2608\ngini = 0.4444\nsamples = 3\nvalue = [1, 2]"] ;
1164 -> 1166 ;
1167 [label="gini = 0.0\nsamples = 1\nvalue = [1, 0]"] ;
1166 -> 1167 ;
1168 [label="gini = 0.0\nsamples = 2\nvalue = [0, 2]"] ;
1166 -> 1168 ;
1169 [label="X[7] <= 0.5\ngini = 0.0713\nsamples = 27\nvalue = [26, 1]"] ;
1163 -> 1169 ;
1170 [label="gini = 0.0\nsamples = 21\nvalue = [21, 0]"] ;
1169 -> 1170 ;
1171 [label="X[1] <= -0.7126\ngini = 0.2778\nsamples = 6\nvalue = [5, 1]"] ;
1169 -> 1171 ;
1172 [label="gini = 0.0\nsamples = 5\nvalue = [5, 0]"] ;
1171 -> 1172 ;
1173 [label="gini = 0.0\nsamples = 1\nvalue = [0, 1]"] ;
1171 -> 1173 ;
1174 [label="X[2] <= -0.2855\ngini = 0.375\nsamples = 4\nvalue = [3, 1]"] ;
1146 -> 1174 ;
1175 [label="gini = 0.0\nsamples = 1\nvalue = [0, 1]"] ;
1174 -> 1175 ;
1176 [label="gini = 0.0\nsamples = 3\nvalue = [3, 0]"] ;
1174 -> 1176 ;
1177 [label="X[0] <= -0.3785\ngini = 0.4444\nsamples = 3\nvalue = [2, 1]"] ;
1093 -> 1177 ;
1178 [label="gini = 0.0\nsamples = 1\nvalue = [0, 1]"] ;
1177 -> 1178 ;
1179 [label="gini = 0.0\nsamples = 2\nvalue = [2, 0]"] ;
1177 -> 1179 ;
1180 [label="X[2] <= -0.1697\ngini = 0.0705\nsamples = 3771\nvalue = [3633, 138]"] ;
1092 -> 1180 ;
1181 [label="gini = 0.0\nsamples = 1\nvalue = [0, 1]"] ;
1180 -> 1181 ;
1182 [label="X[2] <= -0.1463\ngini = 0.07\nsamples = 3770\nvalue = [3633, 137]"] ;
1180 -> 1182 ;
1183 [label="X[2] <= -0.1464\ngini = 0.1948\nsamples = 64\nvalue = [57, 7]"] ;
1182 -> 1183 ;
1184 [label="X[37] <= 0.5\ngini = 0.1723\nsamples = 63\nvalue = [57, 6]"] ;
1183 -> 1184 ;
1185 [label="X[0] <= -0.515\ngini = 0.1483\nsamples = 62\nvalue = [57, 5]"] ;
1184 -> 1185 ;
1186 [label="X[2] <= -0.1606\ngini = 0.2934\nsamples = 28\nvalue = [23, 5]"] ;
1185 -> 1186 ;
1187 [label="gini = 0.0\nsamples = 13\nvalue = [13, 0]"] ;
1186 -> 1187 ;
1188 [label="X[2] <= -0.1512\ngini = 0.4444\nsamples = 15\nvalue = [10, 5]"] ;
1186 -> 1188 ;
1189 [label="X[2] <= -0.1528\ngini = 0.5\nsamples = 10\nvalue = [5, 5]"] ;
1188 -> 1189 ;
1190 [label="X[20] <= 0.5\ngini = 0.4688\nsamples = 8\nvalue = [5, 3]"] ;
1189 -> 1190 ;
1191 [label="X[184] <= 0.5\ngini = 0.4082\nsamples = 7\nvalue = [5, 2]"] ;
1190 -> 1191 ;
1192 [label="gini = 0.0\nsamples = 4\nvalue = [4, 0]"] ;
1191 -> 1192 ;
1193 [label="X[1] <= -0.8286\ngini = 0.4444\nsamples = 3\nvalue = [1, 2]"] ;
1191 -> 1193 ;
1194 [label="gini = 0.0\nsamples = 2\nvalue = [0, 2]"] ;
1193 -> 1194 ;
1195 [label="gini = 0.0\nsamples = 1\nvalue = [1, 0]"] ;
1193 -> 1195 ;
1196 [label="gini = 0.0\nsamples = 1\nvalue = [0, 1]"] ;
1190 -> 1196 ;
1197 [label="gini = 0.0\nsamples = 2\nvalue = [0, 2]"] ;
1189 -> 1197 ;
1198 [label="gini = 0.0\nsamples = 5\nvalue = [5, 0]"] ;
1188 -> 1198 ;
1199 [label="gini = 0.0\nsamples = 34\nvalue = [34, 0]"] ;
1185 -> 1199 ;
1200 [label="gini = 0.0\nsamples = 1\nvalue = [0, 1]"] ;
1184 -> 1200 ;
1201 [label="gini = 0.0\nsamples = 1\nvalue = [0, 1]"] ;
1183 -> 1201 ;
1202 [label="X[86] <= 0.5\ngini = 0.0677\nsamples = 3706\nvalue = [3576, 130]"] ;
1182 -> 1202 ;
1203 [label="X[8] <= 0.5\ngini = 0.0669\nsamples = 3694\nvalue = [3566, 128]"] ;
1202 -> 1203 ;
1204 [label="X[116] <= 0.5\ngini = 0.061\nsamples = 2796\nvalue = [2708, 88]"] ;
1203 -> 1204 ;
1205 [label="X[65] <= 0.5\ngini = 0.0604\nsamples = 2791\nvalue = [2704, 87]"] ;
1204 -> 1205 ;
1206 [label="X[110] <= 0.5\ngini = 0.0598\nsamples = 2786\nvalue = [2700, 86]"] ;
1205 -> 1206 ;
1207 [label="X[77] <= 0.5\ngini = 0.0593\nsamples = 2780\nvalue = [2695, 85]"] ;
1206 -> 1207 ;
1208 [label="X[0] <= -0.1875\ngini = 0.0576\nsamples = 2693\nvalue = [2613, 80]"] ;
1207 -> 1208 ;
1209 [label="X[1] <= -0.8866\ngini = 0.0621\nsamples = 2120\nvalue = [2052, 68]"] ;
1208 -> 1209 ;
1210 [label="X[0] <= -0.897\ngini = 0.0522\nsamples = 1343\nvalue = [1307, 36]"] ;
1209 -> 1210 ;
1211 [label="X[166] <= 0.5\ngini = 0.0202\nsamples = 294\nvalue = [291, 3]"] ;
1210 -> 1211 ;
1212 [label="X[50] <= 0.5\ngini = 0.0136\nsamples = 292\nvalue = [290, 2]"] ;
1211 -> 1212 ;
1213 [label="X[97] <= 0.5\ngini = 0.0069\nsamples = 289\nvalue = [288, 1]"] ;
1212 -> 1213 ;
1214 [label="gini = 0.0\nsamples = 279\nvalue = [279, 0]"] ;
1213 -> 1214 ;
1215 [label="X[0] <= -1.0061\ngini = 0.18\nsamples = 10\nvalue = [9, 1]"] ;
1213 -> 1215 ;
1216 [label="X[11] <= 0.5\ngini = 0.4444\nsamples = 3\nvalue = [2, 1]"] ;
1215 -> 1216 ;
1217 [label="gini = 0.0\nsamples = 1\nvalue = [1, 0]"] ;
1216 -> 1217 ;
1218 [label="X[6] <= 0.5\ngini = 0.5\nsamples = 2\nvalue = [1, 1]"] ;
1216 -> 1218 ;
1219 [label="gini = 0.0\nsamples = 1\nvalue = [1, 0]"] ;
1218 -> 1219 ;
1220 [label="gini = 0.0\nsamples = 1\nvalue = [0, 1]"] ;
1218 -> 1220 ;
1221 [label="gini = 0.0\nsamples = 7\nvalue = [7, 0]"] ;
1215 -> 1221 ;
1222 [label="X[5] <= 0.5\ngini = 0.4444\nsamples = 3\nvalue = [2, 1]"] ;
1212 -> 1222 ;
1223 [label="gini = 0.0\nsamples = 2\nvalue = [2, 0]"] ;
1222 -> 1223 ;
1224 [label="gini = 0.0\nsamples = 1\nvalue = [0, 1]"] ;
1222 -> 1224 ;
1225 [label="X[2] <= 0.5805\ngini = 0.5\nsamples = 2\nvalue = [1, 1]"] ;
1211 -> 1225 ;
1226 [label="gini = 0.0\nsamples = 1\nvalue = [0, 1]"] ;
1225 -> 1226 ;
1227 [label="gini = 0.0\nsamples = 1\nvalue = [1, 0]"] ;
1225 -> 1227 ;
1228 [label="X[1] <= -1.0027\ngini = 0.0609\nsamples = 1049\nvalue = [1016, 33]"] ;
1210 -> 1228 ;
1229 [label="X[2] <= 1.0953\ngini = 0.0697\nsamples = 885\nvalue = [853, 32]"] ;
1228 -> 1229 ;
1230 [label="X[2] <= 1.0927\ngini = 0.0743\nsamples = 828\nvalue = [796, 32]"] ;
1229 -> 1230 ;
1231 [label="X[10] <= 0.5\ngini = 0.0722\nsamples = 827\nvalue = [796, 31]"] ;
1230 -> 1231 ;
1232 [label="X[11] <= 0.5\ngini = 0.0617\nsamples = 628\nvalue = [608, 20]"] ;
1231 -> 1232 ;
1233 [label="X[169] <= 0.5\ngini = 0.0323\nsamples = 365\nvalue = [359, 6]"] ;
1232 -> 1233 ;
1234 [label="X[1] <= -1.4668\ngini = 0.0273\nsamples = 361\nvalue = [356, 5]"] ;
1233 -> 1234 ;
1235 [label="X[2] <= 0.3082\ngini = 0.0555\nsamples = 140\nvalue = [136, 4]"] ;
1234 -> 1235 ;
1236 [label="X[2] <= 0.2981\ngini = 0.1172\nsamples = 48\nvalue = [45, 3]"] ;
1235 -> 1236 ;
1237 [label="X[0] <= -0.7333\ngini = 0.0815\nsamples = 47\nvalue = [45, 2]"] ;
1236 -> 1237 ;
1238 [label="X[97] <= 0.5\ngini = 0.2604\nsamples = 13\nvalue = [11, 2]"] ;
1237 -> 1238 ;
1239 [label="X[2] <= -0.0174\ngini = 0.1528\nsamples = 12\nvalue = [11, 1]"] ;
1238 -> 1239 ;
1240 [label="X[6] <= 0.5\ngini = 0.4444\nsamples = 3\nvalue = [2, 1]"] ;
1239 -> 1240 ;
1241 [label="gini = 0.0\nsamples = 1\nvalue = [0, 1]"] ;
1240 -> 1241 ;
1242 [label="gini = 0.0\nsamples = 2\nvalue = [2, 0]"] ;
1240 -> 1242 ;
1243 [label="gini = 0.0\nsamples = 9\nvalue = [9, 0]"] ;
